{"learner":{"attributes":{"best_iteration":"1128","best_score":"0.9890200393730598","scikit_learn":"{\"_estimator_type\": \"classifier\"}"},"feature_names":[],"feature_types":[],"gradient_booster":{"model":{"gbtree_model_param":{"num_parallel_tree":"1","num_trees":"1179"},"iteration_indptr":[0,1,2,3,4,5,6,7,8,9,10,11,12,13,14,15,16,17,18,19,20,21,22,23,24,25,26,27,28,29,30,31,32,33,34,35,36,37,38,39,40,41,42,43,44,45,46,47,48,49,50,51,52,53,54,55,56,57,58,59,60,61,62,63,64,65,66,67,68,69,70,71,72,73,74,75,76,77,78,79,80,81,82,83,84,85,86,87,88,89,90,91,92,93,94,95,96,97,98,99,100,101,102,103,104,105,106,107,108,109,110,111,112,113,114,115,116,117,118,119,120,121,122,123,124,125,126,127,128,129,130,131,132,133,134,135,136,137,138,139,140,141,142,143,144,145,146,147,148,149,150,151,152,153,154,155,156,157,158,159,160,161,162,163,164,165,166,167,168,169,170,171,172,173,174,175,176,177,178,179,180,181,182,183,184,185,186,187,188,189,190,191,192,193,194,195,196,197,198,199,200,201,202,203,204,205,206,207,208,209,210,211,212,213,214,215,216,217,218,219,220,221,222,223,224,225,226,227,228,229,230,231,232,233,234,235,236,237,238,239,240,241,242,243,244,245,246,247,248,249,250,251,252,253,254,255,256,257,258,259,260,261,262,263,264,265,266,267,268,269,270,271,272,273,274,275,276,277,278,279,280,281,282,283,284,285,286,287,288,289,290,291,292,293,294,295,296,297,298,299,300,301,302,303,304,305,306,307,308,309,310,311,312,313,314,315,316,317,318,319,320,321,322,323,324,325,326,327,328,329,330,331,332,333,334,335,336,337,338,339,340,341,342,343,344,345,346,347,348,349,350,351,352,353,354,355,356,357,358,359,360,361,362,363,364,365,366,367,368,369,370,371,372,373,374,375,376,377,378,379,380,381,382,383,384,385,386,387,388,389,390,391,392,393,394,395,396,397,398,399,400,401,402,403,404,405,406,407,408,409,410,411,412,413,414,415,416,417,418,419,420,421,422,423,424,425,426,427,428,429,430,431,432,433,434,435,436,437,438,439,440,441,442,443,444,445,446,447,448,449,450,451,452,453,454,455,456,457,458,459,460,461,462,463,464,465,466,467,468,469,470,471,472,473,474,475,476,477,478,479,480,481,482,483,484,485,486,487,488,489,490,491,492,493,494,495,496,497,498,499,500,501,502,503,504,505,506,507,508,509,510,511,512,513,514,515,516,517,518,519,520,521,522,523,524,525,526,527,528,529,530,531,532,533,534,535,536,537,538,539,540,541,542,543,544,545,546,547,548,549,550,551,552,553,554,555,556,557,558,559,560,561,562,563,564,565,566,567,568,569,570,571,572,573,574,575,576,577,578,579,580,581,582,583,584,585,586,587,588,589,590,591,592,593,594,595,596,597,598,599,600,601,602,603,604,605,606,607,608,609,610,611,612,613,614,615,616,617,618,619,620,621,622,623,624,625,626,627,628,629,630,631,632,633,634,635,636,637,638,639,640,641,642,643,644,645,646,647,648,649,650,651,652,653,654,655,656,657,658,659,660,661,662,663,664,665,666,667,668,669,670,671,672,673,674,675,676,677,678,679,680,681,682,683,684,685,686,687,688,689,690,691,692,693,694,695,696,697,698,699,700,701,702,703,704,705,706,707,708,709,710,711,712,713,714,715,716,717,718,719,720,721,722,723,724,725,726,727,728,729,730,731,732,733,734,735,736,737,738,739,740,741,742,743,744,745,746,747,748,749,750,751,752,753,754,755,756,757,758,759,760,761,762,763,764,765,766,767,768,769,770,771,772,773,774,775,776,777,778,779,780,781,782,783,784,785,786,787,788,789,790,791,792,793,794,795,796,797,798,799,800,801,802,803,804,805,806,807,808,809,810,811,812,813,814,815,816,817,818,819,820,821,822,823,824,825,826,827,828,829,830,831,832,833,834,835,836,837,838,839,840,841,842,843,844,845,846,847,848,849,850,851,852,853,854,855,856,857,858,859,860,861,862,863,864,865,866,867,868,869,870,871,872,873,874,875,876,877,878,879,880,881,882,883,884,885,886,887,888,889,890,891,892,893,894,895,896,897,898,899,900,901,902,903,904,905,906,907,908,909,910,911,912,913,914,915,916,917,918,919,920,921,922,923,924,925,926,927,928,929,930,931,932,933,934,935,936,937,938,939,940,941,942,943,944,945,946,947,948,949,950,951,952,953,954,955,956,957,958,959,960,961,962,963,964,965,966,967,968,969,970,971,972,973,974,975,976,977,978,979,980,981,982,983,984,985,986,987,988,989,990,991,992,993,994,995,996,997,998,999,1000,1001,1002,1003,1004,1005,1006,1007,1008,1009,1010,1011,1012,1013,1014,1015,1016,1017,1018,1019,1020,1021,1022,1023,1024,1025,1026,1027,1028,1029,1030,1031,1032,1033,1034,1035,1036,1037,1038,1039,1040,1041,1042,1043,1044,1045,1046,1047,1048,1049,1050,1051,1052,1053,1054,1055,1056,1057,1058,1059,1060,1061,1062,1063,1064,1065,1066,1067,1068,1069,1070,1071,1072,1073,1074,1075,1076,1077,1078,1079,1080,1081,1082,1083,1084,1085,1086,1087,1088,1089,1090,1091,1092,1093,1094,1095,1096,1097,1098,1099,1100,1101,1102,1103,1104,1105,1106,1107,1108,1109,1110,1111,1112,1113,1114,1115,1116,1117,1118,1119,1120,1121,1122,1123,1124,1125,1126,1127,1128,1129,1130,1131,1132,1133,1134,1135,1136,1137,1138,1139,1140,1141,1142,1143,1144,1145,1146,1147,1148,1149,1150,1151,1152,1153,1154,1155,1156,1157,1158,1159,1160,1161,1162,1163,1164,1165,1166,1167,1168,1169,1170,1171,1172,1173,1174,1175,1176,1177,1178,1179],"tree_info":[0,0,0,0,0,0,0,0,0,0,0,0,0,0,0,0,0,0,0,0,0,0,0,0,0,0,0,0,0,0,0,0,0,0,0,0,0,0,0,0,0,0,0,0,0,0,0,0,0,0,0,0,0,0,0,0,0,0,0,0,0,0,0,0,0,0,0,0,0,0,0,0,0,0,0,0,0,0,0,0,0,0,0,0,0,0,0,0,0,0,0,0,0,0,0,0,0,0,0,0,0,0,0,0,0,0,0,0,0,0,0,0,0,0,0,0,0,0,0,0,0,0,0,0,0,0,0,0,0,0,0,0,0,0,0,0,0,0,0,0,0,0,0,0,0,0,0,0,0,0,0,0,0,0,0,0,0,0,0,0,0,0,0,0,0,0,0,0,0,0,0,0,0,0,0,0,0,0,0,0,0,0,0,0,0,0,0,0,0,0,0,0,0,0,0,0,0,0,0,0,0,0,0,0,0,0,0,0,0,0,0,0,0,0,0,0,0,0,0,0,0,0,0,0,0,0,0,0,0,0,0,0,0,0,0,0,0,0,0,0,0,0,0,0,0,0,0,0,0,0,0,0,0,0,0,0,0,0,0,0,0,0,0,0,0,0,0,0,0,0,0,0,0,0,0,0,0,0,0,0,0,0,0,0,0,0,0,0,0,0,0,0,0,0,0,0,0,0,0,0,0,0,0,0,0,0,0,0,0,0,0,0,0,0,0,0,0,0,0,0,0,0,0,0,0,0,0,0,0,0,0,0,0,0,0,0,0,0,0,0,0,0,0,0,0,0,0,0,0,0,0,0,0,0,0,0,0,0,0,0,0,0,0,0,0,0,0,0,0,0,0,0,0,0,0,0,0,0,0,0,0,0,0,0,0,0,0,0,0,0,0,0,0,0,0,0,0,0,0,0,0,0,0,0,0,0,0,0,0,0,0,0,0,0,0,0,0,0,0,0,0,0,0,0,0,0,0,0,0,0,0,0,0,0,0,0,0,0,0,0,0,0,0,0,0,0,0,0,0,0,0,0,0,0,0,0,0,0,0,0,0,0,0,0,0,0,0,0,0,0,0,0,0,0,0,0,0,0,0,0,0,0,0,0,0,0,0,0,0,0,0,0,0,0,0,0,0,0,0,0,0,0,0,0,0,0,0,0,0,0,0,0,0,0,0,0,0,0,0,0,0,0,0,0,0,0,0,0,0,0,0,0,0,0,0,0,0,0,0,0,0,0,0,0,0,0,0,0,0,0,0,0,0,0,0,0,0,0,0,0,0,0,0,0,0,0,0,0,0,0,0,0,0,0,0,0,0,0,0,0,0,0,0,0,0,0,0,0,0,0,0,0,0,0,0,0,0,0,0,0,0,0,0,0,0,0,0,0,0,0,0,0,0,0,0,0,0,0,0,0,0,0,0,0,0,0,0,0,0,0,0,0,0,0,0,0,0,0,0,0,0,0,0,0,0,0,0,0,0,0,0,0,0,0,0,0,0,0,0,0,0,0,0,0,0,0,0,0,0,0,0,0,0,0,0,0,0,0,0,0,0,0,0,0,0,0,0,0,0,0,0,0,0,0,0,0,0,0,0,0,0,0,0,0,0,0,0,0,0,0,0,0,0,0,0,0,0,0,0,0,0,0,0,0,0,0,0,0,0,0,0,0,0,0,0,0,0,0,0,0,0,0,0,0,0,0,0,0,0,0,0,0,0,0,0,0,0,0,0,0,0,0,0,0,0,0,0,0,0,0,0,0,0,0,0,0,0,0,0,0,0,0,0,0,0,0,0,0,0,0,0,0,0,0,0,0,0,0,0,0,0,0,0,0,0,0,0,0,0,0,0,0,0,0,0,0,0,0,0,0,0,0,0,0,0,0,0,0,0,0,0,0,0,0,0,0,0,0,0,0,0,0,0,0,0,0,0,0,0,0,0,0,0,0,0,0,0,0,0,0,0,0,0,0,0,0,0,0,0,0,0,0,0,0,0,0,0,0,0,0,0,0,0,0,0,0,0,0,0,0,0,0,0,0,0,0,0,0,0,0,0,0,0,0,0,0,0,0,0,0,0,0,0,0,0,0,0,0,0,0,0,0,0,0,0,0,0,0,0,0,0,0,0,0,0,0,0,0,0,0,0,0,0,0,0,0,0,0,0,0,0,0,0,0,0,0,0,0,0,0,0,0,0,0,0,0,0,0,0,0,0,0,0,0,0,0,0,0,0,0,0,0,0,0,0,0,0,0,0,0,0,0,0,0,0,0,0,0,0,0,0,0,0,0,0,0,0,0,0,0,0,0,0,0,0,0,0,0,0,0,0,0,0,0,0,0,0,0,0,0,0,0,0,0,0,0,0,0,0,0,0,0,0,0,0,0,0,0,0,0,0,0,0,0,0,0,0,0,0,0,0,0,0,0,0,0,0,0,0,0,0,0,0,0,0,0,0,0,0,0,0,0,0,0,0,0,0,0,0,0,0,0,0,0,0,0,0,0,0,0,0,0,0,0,0,0,0,0,0,0,0,0,0,0,0,0,0,0,0,0,0,0,0,0,0,0,0,0,0,0,0,0,0,0,0,0,0,0,0,0,0,0,0,0,0,0,0,0,0,0,0,0,0,0,0,0,0,0,0,0,0,0,0,0,0,0,0,0,0,0,0,0,0,0,0,0,0,0,0],"trees":[{"base_weights":[5.1773034E-2,1.0006818E0,-8.5129255E-1,1.4144931E0,-4.1624737E-1,-1.6655027E0,-3.082727E-1,1.6800965E0,7.526151E-1,-9.3015724E-1,6.710396E-1,-2.529302E-1,-1.835222E0,5.093887E-1,-1.0134965E0,1.7397082E0,-5.612903E-2,-5.6999996E-2,9.02829E-1,-5.754543E-1,-1.7191622E0,1.2640806E0,-1.242114E0,1.1866649E0,-1.2816257E0,1.4307192E-1,-1.912713E0,-4.996045E-1,9.8154E-1,-1.1928015E0,1.4961187E0,5.4028634E-2,3.820925E-2,2.999271E-2,-5.510204E-2,-4.0819872E-2,-7.90535E-3,-5.9073355E-2,-1.4516529E-2,1.0206659E-2,5.090538E-2,-4.5320243E-2,5.421941E-3,3.8687088E-2,-3E-2,-5.077856E-2,4.151978E-2,-3.4758687E-2,5.4538928E-2,-5.830069E-2,-3.9233137E-2,1.650877E-2,-4.4316147E-2,5.61419E-2,1.6166938E-2,-2.6981572E-2,-5.286959E-2,-2.432821E-3,5.2606415E-2],"categories":[],"categories_nodes":[],"categories_segments":[],"categories_sizes":[],"default_left":[1,0,0,0,1,0,0,0,0,0,0,0,0,0,0,0,0,0,1,1,1,0,0,0,0,0,0,0,0,0,0,0,0,0,0,0,0,0,0,0,0,0,0,0,0,0,0,0,0,0,0,0,0,0,0,0,0,0,0],"id":0,"left_children":[1,3,5,7,9,11,13,15,17,19,21,23,25,27,29,31,-1,-1,33,35,37,39,41,43,45,47,49,51,53,55,57,-1,-1,-1,-1,-1,-1,-1,-1,-1,-1,-1,-1,-1,-1,-1,-1,-1,-1,-1,-1,-1,-1,-1,-1,-1,-1,-1,-1],"loss_changes":[2.8963813E3,9.669518E2,7.6519165E2,2.2302051E2,2.0921552E2,1.6559814E2,6.00315E2,1.9581421E2,1.4801707E2,7.007091E1,1.3816756E2,1.1326594E2,9.504639E1,2.3028188E2,2.5324567E2,2.3258057E1,0E0,0E0,9.428909E1,4.291447E1,2.3205444E1,3.636609E1,1.1352016E1,8.482758E0,5.108378E1,5.4940342E1,8.488037E0,1.5931099E2,1.285523E2,8.56629E1,1.5452095E1,0E0,0E0,0E0,0E0,0E0,0E0,0E0,0E0,0E0,0E0,0E0,0E0,0E0,0E0,0E0,0E0,0E0,0E0,0E0,0E0,0E0,0E0,0E0,0E0,0E0,0E0,0E0,0E0],"parents":[2147483647,0,0,1,1,2,2,3,3,4,4,5,5,6,6,7,7,8,8,9,9,10,10,11,11,12,12,13,13,14,14,15,15,18,18,19,19,20,20,21,21,22,22,23,23,24,24,25,25,26,26,27,27,28,28,29,29,30,30],"right_children":[2,4,6,8,10,12,14,16,18,20,22,24,26,28,30,32,-1,-1,34,36,38,40,42,44,46,48,50,52,54,56,58,-1,-1,-1,-1,-1,-1,-1,-1,-1,-1,-1,-1,-1,-1,-1,-1,-1,-1,-1,-1,-1,-1,-1,-1,-1,-1,-1,-1],"split_conditions":[1.608E2,2.12812E4,5.1556E3,1.2E-1,3.1813E2,2.243E2,6E-2,3.69975E3,2.73619E2,1E-1,2.1E-1,1.95438E3,2.523E1,2.169E2,3.42E2,1.326E2,-5.612903E-2,-5.6999996E-2,1.4E-1,4.737E1,1.6E-1,6.96E1,2.60199E3,2.082E2,2.225E2,1.899E1,3.281E2,3.93625E4,2.199E2,2.756E2,2.12812E4,5.4028634E-2,3.820925E-2,2.999271E-2,-5.510204E-2,-4.0819872E-2,-7.90535E-3,-5.9073355E-2,-1.4516529E-2,1.0206659E-2,5.090538E-2,-4.5320243E-2,5.421941E-3,3.8687088E-2,-3E-2,-5.077856E-2,4.151978E-2,-3.4758687E-2,5.4538928E-2,-5.830069E-2,-3.9233137E-2,1.650877E-2,-4.4316147E-2,5.61419E-2,1.6166938E-2,-2.6981572E-2,-5.286959E-2,-2.432821E-3,5.2606415E-2],"split_indices":[5,0,0,4,2,5,4,2,0,4,4,0,2,5,5,5,0,0,4,2,4,5,2,5,5,2,5,0,5,5,0,0,0,0,0,0,0,0,0,0,0,0,0,0,0,0,0,0,0,0,0,0,0,0,0,0,0,0,0],"split_type":[0,0,0,0,0,0,0,0,0,0,0,0,0,0,0,0,0,0,0,0,0,0,0,0,0,0,0,0,0,0,0,0,0,0,0,0,0,0,0,0,0,0,0,0,0,0,0,0,0,0,0,0,0,0,0,0,0,0,0],"sum_hessian":[3.3779697E3,1.6471237E3,1.7308462E3,1.2748175E3,3.7230615E2,6.9167444E2,1.0391718E3,9.086493E2,3.6616815E2,2.5291129E2,1.1939486E2,7.445728E1,6.1721716E2,4.8135245E2,5.578193E2,8.941493E2,1.45E1,1.9E1,3.4716815E2,1.7566786E2,7.724343E1,9.140143E1,2.799343E1,3.0967144E1,4.3490143E1,2.3233572E1,5.939836E2,1.5342442E2,3.27928E2,5.21112E2,3.6707287E1,7.877643E2,1.06385E2,3.3591815E2,1.125E1,4.8990143E1,1.2667772E2,6.375E1,1.3493429E1,2.9727001E1,6.167443E1,2.3496714E1,4.4967146E0,2.9967144E1,1E0,3.7996716E1,5.4934287E0,1.3246715E1,9.986857E0,5.632402E2,3.074343E1,7.418758E1,7.9236855E1,1.07862E2,2.2006601E2,3.4562515E2,1.7548686E2,5.2467146E0,3.1460571E1],"tree_param":{"num_deleted":"0","num_feature":"6","num_nodes":"59","size_leaf_vector":"1"}},{"base_weights":[3.1733545E-3,9.404374E-1,-8.72192E-1,1.3551518E0,-3.824536E-1,-7.2401136E-2,-1.3949856E0,1.6071451E0,7.240036E-1,-8.427551E-1,6.349539E-1,-1.294709E0,4.2486846E-1,-1.7604351E0,-8.0793107E-1,1.6729112E0,-5.492652E-2,-1.17975E0,9.603538E-1,-6.325656E-1,-5.702937E-2,-1.103549E0,1.3755023E0,-5.3889084E-1,-1.7706774E0,-5.3397703E-1,8.320528E-1,-2.703418E-1,-1.9254388E0,-9.839378E-1,1.5937507E0,5.213359E-2,3.532607E-2,-4.1393872E-2,2.4145884E-2,3.189066E-2,-5.3418703E-2,2.2204032E-2,-2.273031E-2,4.26232E-2,-3.987501E-2,4.5485187E-2,4.867425E-3,5.1364447E-3,-5.6205858E-2,2.3956576E-2,-5.544022E-2,9.701738E-3,-4.8532803E-2,4.4319365E-2,1.1153184E-2,2.3517616E-2,-4.6878118E-2,-5.826198E-2,-3.2959584E-2,-2.0281065E-3,-3.3449944E-2,5.2932303E-2,-3.422305E-2],"categories":[],"categories_nodes":[],"categories_segments":[],"categories_sizes":[],"default_left":[1,0,0,0,1,0,0,0,0,0,1,0,0,0,0,0,0,1,1,0,0,0,0,0,0,0,0,0,0,1,0,0,0,0,0,0,0,0,0,0,0,0,0,0,0,0,0,0,0,0,0,0,0,0,0,0,0,0,0],"id":1,"left_children":[1,3,5,7,9,11,13,15,17,19,21,23,25,27,29,31,-1,33,35,37,-1,39,41,43,45,47,49,51,53,55,57,-1,-1,-1,-1,-1,-1,-1,-1,-1,-1,-1,-1,-1,-1,-1,-1,-1,-1,-1,-1,-1,-1,-1,-1,-1,-1,-1,-1],"loss_changes":[2.7485708E3,8.881007E2,7.2419446E2,1.9476904E2,1.8173053E2,4.1737805E2,2.2329968E2,2.0194434E2,1.6011716E2,5.8145264E1,1.5741663E2,7.047742E1,1.9105762E2,1.5800049E2,1.7223035E2,2.5708008E1,0E0,1.6780918E1,9.049942E1,3.904825E1,0E0,2.2806011E1,1.4323013E1,7.439819E1,2.5595123E1,1.3631328E2,1.0134592E2,9.037865E1,5.8442383E0,4.5174408E1,1.5055702E1,0E0,0E0,0E0,0E0,0E0,0E0,0E0,0E0,0E0,0E0,0E0,0E0,0E0,0E0,0E0,0E0,0E0,0E0,0E0,0E0,0E0,0E0,0E0,0E0,0E0,0E0,0E0,0E0],"parents":[2147483647,0,0,1,1,2,2,3,3,4,4,5,5,6,6,7,7,8,8,9,9,10,10,11,11,12,12,13,13,14,14,15,15,17,17,18,18,19,19,21,21,22,22,23,23,24,24,25,25,26,26,27,27,28,28,29,29,30,30],"right_children":[2,4,6,8,10,12,14,16,18,20,22,24,26,28,30,32,-1,34,36,38,-1,40,42,44,46,48,50,52,54,56,58,-1,-1,-1,-1,-1,-1,-1,-1,-1,-1,-1,-1,-1,-1,-1,-1,-1,-1,-1,-1,-1,-1,-1,-1,-1,-1,-1,-1],"split_conditions":[1.608E2,2.12812E4,6E-2,1.3E-1,3.1813E2,5.1556E3,1.08102E4,3.69975E3,1.27231E3,1.594E2,2.34E1,3.2258E2,2.069E2,2.384E2,3.42E2,1.326E2,-5.492652E-2,1.425E2,1.4E-1,1.828E1,-5.702937E-2,3.8547E2,3.65517E3,4E-2,1.789E2,4.84435E4,2.243E2,1E-1,3.313E2,1.782E1,6.29972E4,5.213359E-2,3.532607E-2,-4.1393872E-2,2.4145884E-2,3.189066E-2,-5.3418703E-2,2.2204032E-2,-2.273031E-2,4.26232E-2,-3.987501E-2,4.5485187E-2,4.867425E-3,5.1364447E-3,-5.6205858E-2,2.3956576E-2,-5.544022E-2,9.701738E-3,-4.8532803E-2,4.4319365E-2,1.1153184E-2,2.3517616E-2,-4.6878118E-2,-5.826198E-2,-3.2959584E-2,-2.0281065E-3,-3.3449944E-2,5.2932303E-2,-3.422305E-2],"split_indices":[5,0,4,4,2,0,0,2,0,5,5,2,5,5,5,5,0,5,4,2,0,2,2,4,5,0,5,4,5,2,0,0,0,0,0,0,0,0,0,0,0,0,0,0,0,0,0,0,0,0,0,0,0,0,0,0,0,0,0],"split_type":[0,0,0,0,0,0,0,0,0,0,0,0,0,0,0,0,0,0,0,0,0,0,0,0,0,0,0,0,0,0,0,0,0,0,0,0,0,0,0,0,0,0,0,0,0,0,0,0,0,0,0,0,0,0,0,0,0,0,0],"sum_hessian":[3.3480837E3,1.61684E3,1.7312439E3,1.23093E3,3.8590994E2,6.8477924E2,1.0464646E3,8.7859454E2,3.5233548E2,2.6581845E2,1.2009148E2,1.9756158E2,4.8721765E2,6.4373315E2,4.0273148E2,8.626071E2,1.5987399E1,3.8470642E1,3.1386484E2,2.2310254E2,4.2715916E1,3.57276E1,8.436388E1,7.716267E1,1.20398926E2,1.4513635E2,3.4208127E2,6.44395E1,5.7929364E2,3.7578265E2,2.694884E1,7.605023E2,1.021048E2,3.5224792E1,3.245851E0,3.03123E2,1.0741845E1,1.8225023E1,2.0487752E2,2.4966493E0,3.3230953E1,7.537487E1,8.989003E0,5.0934326E1,2.6228338E1,3.2454324E0,1.1715349E2,8.142421E1,6.3712143E1,1.4150209E2,2.005792E2,3.5704323E1,2.8735178E1,5.6655084E2,1.2742768E1,4.721132E1,3.2857132E2,2.5699703E1,1.2491356E0],"tree_param":{"num_deleted":"0","num_feature":"6","num_nodes":"59","size_leaf_vector":"1"}},{"base_weights":[2.0819518E-3,9.3718463E-1,-9.047553E-1,1.3402985E0,-4.2398232E-1,-1.7174534E0,-3.784248E-1,1.5959111E0,5.6581956E-1,-1.5890263E-1,-4.7649767E-2,4.3317157E-1,-1.7729716E0,3.6272532E-1,-9.622098E-1,1.0217773E0,1.7280788E0,-4.2703715E-1,1.1744236E0,-7.340151E-1,1.511901E-1,-5.0281513E-2,5.4973163E-2,-1.7873727E0,4.1589554E-2,-3.0507816E-2,1.461941E0,-1.1272316E0,1.4180464E0,3.628973E-2,-8.474219E-3,-5.452275E-3,5.312063E-2,-5.4090384E-2,-5.2786833E-3,-5.057438E-2,3.9155617E-2,-6.880584E-3,-4.350542E-2,1.931666E-2,-1.4674621E-2,-4.0962134E-2,-5.560053E-2,1.3848443E-2,-3.128865E-2,1.11304745E-2,5.424439E-2,-2.4502348E-2,-5.1804513E-2,2.8316777E-3,5.534701E-2],"categories":[],"categories_nodes":[],"categories_segments":[],"categories_sizes":[],"default_left":[1,0,0,0,0,0,0,0,0,0,0,0,0,1,0,0,0,0,0,0,0,0,0,0,0,0,0,0,1,0,0,0,0,0,0,0,0,0,0,0,0,0,0,0,0,0,0,0,0,0,0],"id":2,"left_children":[1,3,5,7,9,11,13,15,17,19,-1,21,23,25,27,29,31,33,35,37,39,-1,-1,41,-1,43,45,47,49,-1,-1,-1,-1,-1,-1,-1,-1,-1,-1,-1,-1,-1,-1,-1,-1,-1,-1,-1,-1,-1,-1],"loss_changes":[2.8163625E3,8.977754E2,7.205768E2,2.4888525E2,1.1529316E2,7.9866455E1,4.436784E2,7.0178955E1,1.906318E2,5.4691795E1,0E0,5.4646317E1,3.1869019E1,1.9550409E2,2.2684137E2,4.441629E1,6.292041E1,4.1247807E1,7.526074E1,3.847785E1,6.331003E1,0E0,0E0,1.5385254E1,0E0,1.669102E2,4.4335907E1,9.852521E1,2.1082268E1,0E0,0E0,0E0,0E0,0E0,0E0,0E0,0E0,0E0,0E0,0E0,0E0,0E0,0E0,0E0,0E0,0E0,0E0,0E0,0E0,0E0,0E0],"parents":[2147483647,0,0,1,1,2,2,3,3,4,4,5,5,6,6,7,7,8,8,9,9,11,11,12,12,13,13,14,14,15,15,16,16,17,17,18,18,19,19,20,20,23,23,25,25,26,26,27,27,28,28],"right_children":[2,4,6,8,10,12,14,16,18,20,-1,22,24,26,28,30,32,34,36,38,40,-1,-1,42,-1,44,46,48,50,-1,-1,-1,-1,-1,-1,-1,-1,-1,-1,-1,-1,-1,-1,-1,-1,-1,-1,-1,-1,-1,-1],"split_conditions":[1.608E2,2.12812E4,5.13181E3,1.4E-1,1.594E2,1E-2,6E-2,7.9E-1,4.63934E3,2.9E-1,-4.7649767E-2,2.3E-1,3.528E2,2.2E-1,3.42E2,1.24E2,2.73619E2,2.73619E2,2.5E-1,7E-2,8.36947E4,-5.0281513E-2,5.4973163E-2,2.552E2,4.1589554E-2,4.98824E4,5.39563E4,2.756E2,1E-1,3.628973E-2,-8.474219E-3,-5.452275E-3,5.312063E-2,-5.4090384E-2,-5.2786833E-3,-5.057438E-2,3.9155617E-2,-6.880584E-3,-4.350542E-2,1.931666E-2,-1.4674621E-2,-4.0962134E-2,-5.560053E-2,1.3848443E-2,-3.128865E-2,1.11304745E-2,5.424439E-2,-2.4502348E-2,-5.1804513E-2,2.8316777E-3,5.534701E-2],"split_indices":[5,0,0,4,5,4,4,3,0,3,0,3,5,3,5,5,0,0,4,4,0,0,0,5,0,0,0,5,3,0,0,0,0,0,0,0,0,0,0,0,0,0,0,0,0,0,0,0,0,0,0],"split_type":[0,0,0,0,0,0,0,0,0,0,0,0,0,0,0,0,0,0,0,0,0,0,0,0,0,0,0,0,0,0,0,0,0,0,0,0,0,0,0,0,0,0,0,0,0,0,0,0,0,0,0],"sum_hessian":[3.3192373E3,1.6341345E3,1.6851027E3,1.260769E3,3.7336542E2,6.61472E2,1.0236307E3,9.471175E2,3.1365158E2,3.0505228E2,6.831312E1,1.6474981E1,6.44997E2,4.511929E2,5.724378E2,1.7886453E2,7.68253E2,1.1931056E2,1.9434102E2,1.0638276E2,1.9866953E2,6.4917164E0,9.983264E0,6.4250256E2,2.4944928E0,3.3302783E2,1.18165054E2,5.358164E2,3.6621407E1,1.5640636E2,2.2458174E1,1.6694748E1,7.515582E2,1.7457714E1,1.0185285E2,7.9764924E0,1.8636453E2,6.318105E1,4.3201714E1,1.1227584E2,8.6393684E1,8.981043E1,5.526921E2,2.2446545E2,1.0856239E2,2.8965086E1,8.919997E1,3.545698E2,1.8124658E2,9.227726E0,2.7393682E1],"tree_param":{"num_deleted":"0","num_feature":"6","num_nodes":"51","size_leaf_vector":"1"}},{"base_weights":[-1.0264573E-2,8.6541617E-1,-8.183223E-1,1.2698263E0,-3.2328898E-1,-4.1714687E-2,-1.3294849E0,1.5301895E0,5.6480217E-1,-8.006213E-1,6.5352035E-1,-1.2996701E0,4.4309568E-1,-1.4138718E0,1.5230814E0,1.5890765E0,-5.3472415E-2,-3.9758074E-1,1.1179619E0,-4.73758E-1,-1.517522E0,-3.7721145E-1,1.5714291E0,-5.685683E-1,-1.7547379E0,-2.8371271E-1,8.4231275E-1,-8.433823E-1,-1.7144583E0,-3.7566595E-2,5.205211E-2,4.9859516E-2,3.3495348E-2,4.9698688E-2,-2.5803596E-2,3.909627E-2,-5.5937473E-2,-8.368629E-3,-4.634103E-2,-5.543378E-2,-5.2751303E-3,2.5296537E-2,-3.3815727E-2,4.9503557E-2,8.013269E-3,1.264505E-3,-5.319946E-2,-2.8008167E-2,-5.49663E-2,1.6816225E-2,-3.5845738E-2,4.910099E-2,9.114007E-3,2.4012823E-3,-3.27267E-2,-5.389435E-2,-1.7395284E-2],"categories":[],"categories_nodes":[],"categories_segments":[],"categories_sizes":[],"default_left":[1,0,0,0,1,0,0,0,0,0,1,0,0,0,0,0,0,0,0,0,1,0,0,0,0,0,0,0,0,0,0,0,0,0,0,0,0,0,0,0,0,0,0,0,0,0,0,0,0,0,0,0,0,0,0,0,0],"id":3,"left_children":[1,3,5,7,9,11,13,15,17,19,21,23,25,27,29,31,-1,33,35,37,39,41,43,45,47,49,51,53,55,-1,-1,-1,-1,-1,-1,-1,-1,-1,-1,-1,-1,-1,-1,-1,-1,-1,-1,-1,-1,-1,-1,-1,-1,-1,-1,-1,-1],"loss_changes":[2.3619067E3,7.7049805E2,6.890801E2,2.1858203E2,1.9049966E2,4.214499E2,2.54156E2,1.7302625E2,1.7292923E2,6.3521698E1,1.2765386E2,6.295761E1,1.4498943E2,1.7300427E2,2.015274E1,2.7697754E1,0E0,1.14489655E2,1.1625137E2,3.9155457E1,3.7516464E1,5.959106E1,6.8700256E0,5.5424305E1,5.796173E0,1.372995E2,1.3736024E2,8.077109E1,6.0871216E1,0E0,0E0,0E0,0E0,0E0,0E0,0E0,0E0,0E0,0E0,0E0,0E0,0E0,0E0,0E0,0E0,0E0,0E0,0E0,0E0,0E0,0E0,0E0,0E0,0E0,0E0,0E0,0E0],"parents":[2147483647,0,0,1,1,2,2,3,3,4,4,5,5,6,6,7,7,8,8,9,9,10,10,11,11,12,12,13,13,14,14,15,15,17,17,18,18,19,19,20,20,21,21,22,22,23,23,24,24,25,25,26,26,27,27,28,28],"right_children":[2,4,6,8,10,12,14,16,18,20,22,24,26,28,30,32,-1,34,36,38,40,42,44,46,48,50,52,54,56,-1,-1,-1,-1,-1,-1,-1,-1,-1,-1,-1,-1,-1,-1,-1,-1,-1,-1,-1,-1,-1,-1,-1,-1,-1,-1,-1,-1],"split_conditions":[1.608E2,1.96344E4,6E-2,1.3E-1,3.1813E2,5.1556E3,3.528E2,3.69975E3,3.72881E3,1E-1,8.23E1,3.2258E2,2.169E2,2.508E2,1.611E1,1.3E2,-5.3472415E-2,2.523E1,1.02985E3,1.27295E5,1.6E-1,3.12E1,2.88749E5,4E-2,1.839E2,4.04238E4,2.243E2,1.26557E4,1.55071E4,-3.7566595E-2,5.205211E-2,4.9859516E-2,3.3495348E-2,4.9698688E-2,-2.5803596E-2,3.909627E-2,-5.5937473E-2,-8.368629E-3,-4.634103E-2,-5.543378E-2,-5.2751303E-3,2.5296537E-2,-3.3815727E-2,4.9503557E-2,8.013269E-3,1.264505E-3,-5.319946E-2,-2.8008167E-2,-5.49663E-2,1.6816225E-2,-3.5845738E-2,4.910099E-2,9.114007E-3,2.4012823E-3,-3.27267E-2,-5.389435E-2,-1.7395284E-2],"split_indices":[5,0,4,4,2,0,5,2,0,4,5,2,5,5,2,5,0,2,2,0,4,5,0,4,5,0,5,0,0,0,0,0,0,0,0,0,0,0,0,0,0,0,0,0,0,0,0,0,0,0,0,0,0,0,0,0,0],"split_type":[0,0,0,0,0,0,0,0,0,0,0,0,0,0,0,0,0,0,0,0,0,0,0,0,0,0,0,0,0,0,0,0,0,0,0,0,0,0,0,0,0,0,0,0,0,0,0,0,0,0,0,0,0,0,0,0,0],"sum_hessian":[3.3359084E3,1.6009312E3,1.7349774E3,1.194486E3,4.0644516E2,6.891047E2,1.0458728E3,8.714805E2,3.2300543E2,2.7314783E2,1.3329733E2,1.9123064E2,4.9787402E2,1.01631177E3,2.9560993E1,8.567704E2,1.4710194E1,1.179968E2,2.0500864E2,1.8875008E2,8.439774E1,6.3067295E1,7.023004E1,7.4227615E1,1.1700303E2,1.7661707E2,3.2125696E2,3.5201706E2,6.642947E2,1.7495363E0,2.7811457E1,7.4007446E2,1.1669588E2,2.1211565E1,9.678523E1,1.9355019E2,1.1458436E1,1.6076714E2,2.798294E1,6.742347E1,1.6974266E1,2.3957432E1,3.9109863E1,6.598411E1,4.2459345E0,4.9898E1,2.4329615E1,1.1212452E1,1.0579058E2,9.187337E1,8.47437E1,1.2896898E2,1.9228796E2,7.4551186E1,2.7746585E2,6.1896704E2,4.5327682E1],"tree_param":{"num_deleted":"0","num_feature":"6","num_nodes":"57","size_leaf_vector":"1"}},{"base_weights":[7.2570695E-3,-1.2065123E0,1.4137006E0,-1.7381122E0,-1.6467972E-1,6.4608735E-1,1.614451E0,-3.4546256E-1,-1.8147883E0,-7.730808E-1,5.3836656E-1,-1.95346E-1,1.24769E0,1.6471761E0,-5.088147E-2,-1.2365166E0,1.7424765E0,-1.8230473E0,2.8379325E-2,-1.3510086E-2,-1.1091539E0,1.0797248E0,-1.3472402E0,-7.3580205E-1,1.7790675E0,1.3027737E0,-4.3079514E-2,1.7044456E0,1.3457836E0,-5.5887148E-2,-5.3512817E-3,2.3406835E-2,5.667036E-2,-5.4952245E-2,-3.961177E-2,1.1628867E-2,-3.4981593E-2,1.0356198E-2,-4.010111E-2,4.506841E-3,4.471333E-2,-4.8736807E-2,1.0227975E-2,1.1896778E-2,-3.9827157E-2,5.6133676E-2,2.3907574E-2,3.0187551E-2,5.3663526E-2,3.930852E-2,5.158284E-2,4.4241343E-2,3.267469E-3],"categories":[],"categories_nodes":[],"categories_segments":[],"categories_sizes":[],"default_left":[1,1,0,0,0,0,1,0,1,0,1,0,0,1,0,0,0,1,0,0,0,1,0,0,0,0,0,0,0,0,0,0,0,0,0,0,0,0,0,0,0,0,0,0,0,0,0,0,0,0,0,0,0],"id":4,"left_children":[1,3,5,7,9,11,13,15,17,19,21,23,25,27,-1,29,31,33,-1,35,37,39,41,43,45,47,-1,49,51,-1,-1,-1,-1,-1,-1,-1,-1,-1,-1,-1,-1,-1,-1,-1,-1,-1,-1,-1,-1,-1,-1,-1,-1],"loss_changes":[5.6669834E3,9.865901E2,2.3592578E2,1.2535083E2,2.583966E2,1.6246396E2,1.3478125E2,1.1899196E2,2.7214844E1,8.262662E1,2.8767587E2,1.4479465E2,2.9513855E1,1.8537842E1,0E0,2.9229347E1,1.2333183E0,2.4541016E0,0E0,4.6830666E1,7.473273E1,8.3154236E1,3.0043114E1,7.174136E1,1.1479568E0,2.4682129E1,0E0,3.7141113E0,3.1328217E1,0E0,0E0,0E0,0E0,0E0,0E0,0E0,0E0,0E0,0E0,0E0,0E0,0E0,0E0,0E0,0E0,0E0,0E0,0E0,0E0,0E0,0E0,0E0,0E0],"parents":[2147483647,0,0,1,1,2,2,3,3,4,4,5,5,6,6,7,7,8,8,9,9,10,10,11,11,12,12,13,13,15,15,16,16,17,17,19,19,20,20,21,21,22,22,23,23,24,24,25,25,27,27,28,28],"right_children":[2,4,6,8,10,12,14,16,18,20,22,24,26,28,-1,30,32,34,-1,36,38,40,42,44,46,48,-1,50,52,-1,-1,-1,-1,-1,-1,-1,-1,-1,-1,-1,-1,-1,-1,-1,-1,-1,-1,-1,-1,-1,-1,-1,-1],"split_conditions":[2.49E1,2.17E1,6.8E-1,2.523E1,2.059E2,5.109E1,4.83329E3,2.06E1,3.528E2,1.03E2,2.347E2,2.609E2,3.69975E3,1.613E2,-5.088147E-2,2.366E2,1.611E1,4.8E-1,2.8379325E-2,2.39E1,2.28E1,2.169E2,2.43E1,9.54E1,1E-1,2.53334E3,-4.3079514E-2,2.63E1,3.02E1,-5.5887148E-2,-5.3512817E-3,2.3406835E-2,5.667036E-2,-5.4952245E-2,-3.961177E-2,1.1628867E-2,-3.4981593E-2,1.0356198E-2,-4.010111E-2,4.506841E-3,4.471333E-2,-4.8736807E-2,1.0227975E-2,1.1896778E-2,-3.9827157E-2,5.6133676E-2,2.3907574E-2,3.0187551E-2,5.3663526E-2,3.930852E-2,5.158284E-2,4.4241343E-2,3.267469E-3],"split_indices":[1,1,3,2,5,2,2,1,5,5,5,5,2,5,0,5,2,3,0,1,1,5,1,5,3,2,0,1,1,0,0,0,0,0,0,0,0,0,0,0,0,0,0,0,0,0,0,0,0,0,0,0,0],"split_type":[0,0,0,0,0,0,0,0,0,0,0,0,0,0,0,0,0,0,0,0,0,0,0,0,0,0,0,0,0,0,0,0,0,0,0,0,0,0,0,0,0,0,0,0,0,0,0,0,0,0,0,0,0],"sum_hessian":[3.3176594E3,1.780886E3,1.5367734E3,1.1787534E3,6.021326E2,3.1946136E2,1.217312E3,6.180003E1,1.1169534E3,3.2274042E2,2.793922E2,1.3346518E2,1.859962E2,1.2058939E3,1.1418113E1,4.3600677E1,1.8199352E1,1.1139606E3,2.9928102E0,9.931507E1,2.2342535E2,2.174031E2,6.1989105E1,1.0527547E2,2.8189713E1,1.8275952E2,3.236675E0,1.00943066E3,1.964633E2,2.6910124E1,1.6690554E1,3.2410417E0,1.495831E1,1.0924211E3,2.1539413E1,7.416563E1,2.5149439E1,3.0157831E1,1.9326752E2,6.7043396E1,1.5035971E2,5.3275154E1,8.713951E0,3.6246693E1,6.902877E1,2.4946398E1,3.2433155E0,1.1541415E2,6.7345375E1,4.0203533E1,9.692271E2,1.777435E2,1.8719809E1],"tree_param":{"num_deleted":"0","num_feature":"6","num_nodes":"53","size_leaf_vector":"1"}},{"base_weights":[-1.7927706E-2,8.1999713E-1,-8.2217896E-1,1.2189561E0,-4.4785926E-1,-2.4650091E-1,-1.3196192E0,-7.482816E-1,1.2912649E0,-8.559946E-1,4.9602798E-1,-5.78988E-1,2.8761476E-1,-1.4788378E0,1.0198054E0,5.022975E-2,-5.2190088E-2,1.5112377E0,9.040478E-1,-1.5050402E0,-3.705342E-1,-5.431113E-1,1.5141356E0,-1.1755246E0,-9.9864446E-2,1.4178168E0,-3.3817428E-1,1.3903726E0,-1.5507418E0,-8.9059603E-1,1.4448583E0,4.594374E-2,-4.600298E-2,6.5332637E-3,3.6539704E-2,7.0365877E-3,-5.4808404E-2,-2.2983555E-2,3.2768387E-2,1.6137628E-2,-3.207617E-2,4.9746007E-2,-4.5352224E-2,-4.44344E-2,-1.1804741E-2,1.4010048E-2,-2.5144638E-2,4.6815217E-2,-4.561488E-2,-1.5378681E-2,4.489116E-2,5.2096866E-2,4.639743E-3,-4.842808E-2,2.2490742E-2,-4.8247866E-2,7.0582074E-3,4.882363E-2,1.3096948E-2],"categories":[],"categories_nodes":[],"categories_segments":[],"categories_sizes":[],"default_left":[1,0,0,0,1,0,0,0,0,1,1,0,0,1,0,0,0,0,0,0,0,0,1,0,0,0,1,0,1,0,0,0,0,0,0,0,0,0,0,0,0,0,0,0,0,0,0,0,0,0,0,0,0,0,0,0,0,0,0],"id":5,"left_children":[1,3,5,7,9,11,13,15,17,19,21,23,25,27,29,-1,-1,31,33,35,37,39,41,43,45,47,49,51,53,55,57,-1,-1,-1,-1,-1,-1,-1,-1,-1,-1,-1,-1,-1,-1,-1,-1,-1,-1,-1,-1,-1,-1,-1,-1,-1,-1,-1,-1],"loss_changes":[2.2218801E3,8.173108E2,4.814303E2,1.7571887E2,1.4959572E2,1.3887213E2,3.3757898E2,1.0904015E2,9.95957E1,8.4735565E1,1.2515754E2,1.3756647E2,2.1289676E2,1.7652039E2,4.8453213E1,0E0,0E0,4.879297E1,9.278876E1,6.5110596E1,9.121979E1,3.40715E1,2.849936E1,5.0678894E1,1.12655525E2,4.7328506E1,6.2889088E1,8.796238E0,1.21773315E2,9.420023E0,8.107475E0,0E0,0E0,0E0,0E0,0E0,0E0,0E0,0E0,0E0,0E0,0E0,0E0,0E0,0E0,0E0,0E0,0E0,0E0,0E0,0E0,0E0,0E0,0E0,0E0,0E0,0E0,0E0,0E0],"parents":[2147483647,0,0,1,1,2,2,3,3,4,4,5,5,6,6,7,7,8,8,9,9,10,10,11,11,12,12,13,13,14,14,17,17,18,18,19,19,20,20,21,21,22,22,23,23,24,24,25,25,26,26,27,27,28,28,29,29,30,30],"right_children":[2,4,6,8,10,12,14,16,18,20,22,24,26,28,30,-1,-1,32,34,36,38,40,42,44,46,48,50,52,54,56,58,-1,-1,-1,-1,-1,-1,-1,-1,-1,-1,-1,-1,-1,-1,-1,-1,-1,-1,-1,-1,-1,-1,-1,-1,-1,-1,-1,-1],"split_conditions":[1.608E2,1.96344E4,2.581E2,2.73619E2,3.1813E2,2.169E2,3.37E2,1.80831E2,1.272E2,4E-2,8.23E1,2.3E-1,2.199E2,1.782E1,8.40685E3,5.022975E-2,-5.2190088E-2,3.69975E3,4.39401E3,4.55771E4,8.367E1,3.12E1,2.1E-1,2.049E2,1.96344E4,2.5E-1,2.32187E3,3.63255E4,6.5E-1,3.528E2,3.76001E0,4.594374E-2,-4.600298E-2,6.5332637E-3,3.6539704E-2,7.0365877E-3,-5.4808404E-2,-2.2983555E-2,3.2768387E-2,1.6137628E-2,-3.207617E-2,4.9746007E-2,-4.5352224E-2,-4.44344E-2,-1.1804741E-2,1.4010048E-2,-2.5144638E-2,4.6815217E-2,-4.561488E-2,-1.5378681E-2,4.489116E-2,5.2096866E-2,4.639743E-3,-4.842808E-2,2.2490742E-2,-4.8247866E-2,7.0582074E-3,4.882363E-2,1.3096948E-2],"split_indices":[5,0,5,0,2,5,5,0,5,3,5,3,5,2,0,0,0,2,0,0,2,5,3,5,0,3,2,0,3,5,3,0,0,0,0,0,0,0,0,0,0,0,0,0,0,0,0,0,0,0,0,0,0,0,0,0,0,0,0],"split_type":[0,0,0,0,0,0,0,0,0,0,0,0,0,0,0,0,0,0,0,0,0,0,0,0,0,0,0,0,0,0,0,0,0,0,0,0,0,0,0,0,0,0,0,0,0,0,0,0,0,0,0,0,0,0,0,0,0,0,0],"sum_hessian":[3.2950364E3,1.6137255E3,1.6813109E3,1.227503E3,3.8622238E2,7.800591E2,9.012519E2,4.318764E1,1.1843154E3,2.6969836E2,1.1652402E2,4.8072418E2,2.993349E2,8.441667E2,5.708518E1,1.2341195E1,3.0846447E1,7.534102E2,4.3090524E2,1.1450648E2,1.551919E2,5.7897274E1,5.8626747E1,2.134781E2,2.6724606E2,1.06224045E2,1.9311086E2,2.0189777E1,8.239769E2,1.0190169E1,4.6895008E1,7.489334E2,4.476816E0,1.35782E2,2.9512323E2,1.7922749E1,9.6583725E1,1.2253216E2,3.2659733E1,1.8945364E1,3.895191E1,5.6393784E1,2.2329633E0,1.5284975E2,6.0628357E1,1.5138145E2,1.15864624E2,1.01751686E2,4.4723606E0,1.7700034E2,1.6110525E1,1.5454762E1,4.735015E0,8.0212415E2,2.185279E1,5.961592E0,4.2285767E0,3.9184803E1,7.7102065E0],"tree_param":{"num_deleted":"0","num_feature":"6","num_nodes":"59","size_leaf_vector":"1"}},{"base_weights":[-2.2123665E-2,-1.1764795E0,1.3460829E0,-1.6812072E0,-1.985882E-1,5.34514E-1,1.5516822E0,-1.703086E0,2.7773106E-1,-7.1034974E-1,4.3668985E-1,-1.0975812E-1,1.226794E0,1.5792711E0,-1.0793611E0,-1.7262582E0,-8.5527164E-1,-4.2518776E-2,7.8132325E-1,8.249006E-1,-8.501762E-1,9.986414E-1,-1.317436E0,-5.820522E-1,1.1516434E0,1.0890083E0,5.1951934E-2,1.6195617E0,1.3249677E0,-5.2696668E-2,3.8247976E-2,-5.2973814E-2,-4.0791504E-2,-5.133237E-2,4.235382E-2,3.8901072E-2,1.8949431E-3,9.072464E-3,4.8075378E-2,-3.5525504E-2,-9.074993E-3,-7.49346E-4,4.0607475E-2,3.2076962E-2,-4.755956E-2,-6.7653635E-4,-3.5609413E-2,1.6040243E-5,4.4839915E-2,4.0006436E-2,-5.2626375E-2,4.9050514E-2,4.1715857E-2,4.4480976E-2,-4.4833887E-3],"categories":[],"categories_nodes":[],"categories_segments":[],"categories_sizes":[],"default_left":[1,1,0,1,0,0,1,1,1,0,1,0,0,1,0,1,0,0,0,0,0,0,0,0,0,0,0,0,0,0,0,0,0,0,0,0,0,0,0,0,0,0,0,0,0,0,0,0,0,0,0,0,0,0,0],"id":6,"left_children":[1,3,5,7,9,11,13,15,17,19,21,23,25,27,29,31,33,-1,35,37,39,41,43,45,47,49,-1,51,53,-1,-1,-1,-1,-1,-1,-1,-1,-1,-1,-1,-1,-1,-1,-1,-1,-1,-1,-1,-1,-1,-1,-1,-1,-1,-1],"loss_changes":[5.136066E3,8.7021704E2,2.4747607E2,5.0327393E1,1.9589046E2,1.349739E2,8.785132E1,2.1125977E1,1.2808424E1,7.2306305E1,2.6649713E2,9.4505394E1,8.258743E0,9.89209E0,2.2821384E1,1.3813721E1,6.5646545E1,0E0,4.068194E0,1.103429E1,5.5656036E1,7.426683E1,4.3702446E1,3.8984917E1,1.7074173E1,8.385916E1,0E0,1.3007812E0,3.886966E1,0E0,0E0,0E0,0E0,0E0,0E0,0E0,0E0,0E0,0E0,0E0,0E0,0E0,0E0,0E0,0E0,0E0,0E0,0E0,0E0,0E0,0E0,0E0,0E0,0E0,0E0],"parents":[2147483647,0,0,1,1,2,2,3,3,4,4,5,5,6,6,7,7,8,8,9,9,10,10,11,11,12,12,13,13,14,14,15,15,16,16,18,18,19,19,20,20,21,21,22,22,23,23,24,24,25,25,27,27,28,28],"right_children":[2,4,6,8,10,12,14,16,18,20,22,24,26,28,30,32,34,-1,36,38,40,42,44,46,48,50,-1,52,54,-1,-1,-1,-1,-1,-1,-1,-1,-1,-1,-1,-1,-1,-1,-1,-1,-1,-1,-1,-1,-1,-1,-1,-1,-1,-1],"split_conditions":[2.49E1,2.17E1,8.6E-1,3.42E2,2.059E2,2.84E1,1.3E-1,4.8E-1,7E-2,2.21E1,2.347E2,2.384E2,2.678E2,1.643E2,2.83E1,2.06E1,1.63E1,-4.2518776E-2,1.2E-1,1.1E0,2.3E-1,2.169E2,2E-2,2.65E1,1.5E-1,1.837E2,5.1951934E-2,3.07E1,3.02E1,-5.2696668E-2,3.8247976E-2,-5.2973814E-2,-4.0791504E-2,-5.133237E-2,4.235382E-2,3.8901072E-2,1.8949431E-3,9.072464E-3,4.8075378E-2,-3.5525504E-2,-9.074993E-3,-7.49346E-4,4.0607475E-2,3.2076962E-2,-4.755956E-2,-6.7653635E-4,-3.5609413E-2,1.6040243E-5,4.4839915E-2,4.0006436E-2,-5.2626375E-2,4.9050514E-2,4.1715857E-2,4.4480976E-2,-4.4833887E-3],"split_indices":[1,1,3,5,5,1,4,3,3,1,5,5,5,5,1,1,1,0,4,3,3,5,4,1,3,5,0,1,1,0,0,0,0,0,0,0,0,0,0,0,0,0,0,0,0,0,0,0,0,0,0,0,0,0,0],"split_type":[0,0,0,0,0,0,0,0,0,0,0,0,0,0,0,0,0,0,0,0,0,0,0,0,0,0,0,0,0,0,0,0,0,0,0,0,0,0,0,0,0,0,0,0,0,0,0,0,0,0,0,0,0,0,0],"sum_hessian":[3.2499128E3,1.7627885E3,1.4871244E3,1.1622084E3,6.0058014E2,3.0131882E2,1.1858055E3,1.1495005E3,1.2707888E1,3.325607E2,2.680194E2,1.5650682E2,1.4481201E2,1.173896E3,1.1909554E1,1.1179102E3,3.1590343E1,2.4951572E0,1.021273E1,2.7351404E1,3.0520932E2,2.0331586E2,6.470355E1,1.14263016E2,4.22438E1,1.1624747E2,2.856454E1,1.0087117E3,1.6518434E2,9.446292E0,2.4632614E0,1.0056247E3,1.1228543E2,2.311121E1,8.479135E0,5.4767804E0,4.7359495E0,1.7190104E1,1.0161299E1,1.8886526E2,1.1634405E2,5.2587543E1,1.5072832E2,6.22765E0,5.8475903E1,5.9899227E1,5.4363792E1,9.92822E0,3.2315582E1,1.0753001E2,8.7174635E0,9.391945E2,6.951714E1,1.4921576E2,1.5968596E1],"tree_param":{"num_deleted":"0","num_feature":"6","num_nodes":"55","size_leaf_vector":"1"}},{"base_weights":[-1.0044138E-2,-1.1356664E0,1.3102955E0,-1.6347462E0,-1.6293661E-1,1.4006761E0,4.8674014E-1,-5.204044E-1,-1.6930257E0,-4.8156536E-1,1.4548978E0,1.43893E0,-5.1200885E-2,-1.3743945E0,1.2462467E0,-1.360976E0,1.6907909E0,-7.7694935E-1,-1.700821E0,7.571924E-1,-7.38411E-1,1.7101688E0,-4.9517937E-2,1.5411642E0,1.0139889E0,4.1019347E-2,-1.5732926E0,1.4136207E0,-4.996009E-2,4.1695762E-2,-4.6899427E-2,2.1452026E-2,5.614271E-2,4.270969E-2,-4.7380187E-2,-5.4122385E-2,-4.946347E-2,3.317039E-4,5.4526445E-2,-4.8317105E-2,-1.4048377E-2,5.3995617E-2,3.9121144E-2,3.2986134E-2,4.6915255E-2,1.4729269E-2,3.7189536E-2,-5.4052737E-2,-1.841691E-2,-1.44074E-2,4.6247788E-2],"categories":[],"categories_nodes":[],"categories_segments":[],"categories_sizes":[],"default_left":[1,1,0,0,0,0,0,0,0,1,0,1,0,0,0,0,0,0,1,0,0,0,0,0,0,0,0,0,0,0,0,0,0,0,0,0,0,0,0,0,0,0,0,0,0,0,0,0,0,0,0],"id":7,"left_children":[1,3,5,7,9,11,13,15,17,19,21,23,-1,25,27,29,31,33,35,37,39,41,-1,43,45,-1,47,49,-1,-1,-1,-1,-1,-1,-1,-1,-1,-1,-1,-1,-1,-1,-1,-1,-1,-1,-1,-1,-1,-1,-1],"loss_changes":[4.822341E3,8.5004224E2,1.1046362E2,7.428955E1,3.074355E2,1.6233716E2,2.1261302E2,1.1190816E2,6.5305176E0,1.5896938E2,8.0636154E1,5.6182617E1,0E0,2.5990463E1,5.4246033E1,2.6263527E1,1.6031494E0,2.18805E1,2.8791504E0,6.801773E1,9.652031E1,9.745178E-1,0E0,8.991943E0,3.0159607E1,0E0,7.9297867E0,2.5276093E1,0E0,0E0,0E0,0E0,0E0,0E0,0E0,0E0,0E0,0E0,0E0,0E0,0E0,0E0,0E0,0E0,0E0,0E0,0E0,0E0,0E0,0E0,0E0],"parents":[2147483647,0,0,1,1,2,2,3,3,4,4,5,5,6,6,7,7,8,8,9,9,10,10,11,11,13,13,14,14,15,15,16,16,17,17,18,18,19,19,20,20,21,21,23,23,24,24,26,26,27,27],"right_children":[2,4,6,8,10,12,14,16,18,20,22,24,-1,26,28,30,32,34,36,38,40,42,-1,44,46,-1,48,50,-1,-1,-1,-1,-1,-1,-1,-1,-1,-1,-1,-1,-1,-1,-1,-1,-1,-1,-1,-1,-1,-1,-1],"split_conditions":[2.49E1,2.17E1,3.93625E4,2.523E1,9.36946E4,3.69975E3,7.048E1,2.06E1,1E-2,1.913E1,1.77548E5,8E-2,-5.1200885E-2,4.35603E4,3.03E1,9.57E0,1.611E1,5.07335E2,5E-2,2.80106E4,1.993E1,3.8547E2,-4.9517937E-2,2.61E1,2.944E1,4.1019347E-2,8.36947E4,4.27607E4,-4.996009E-2,4.1695762E-2,-4.6899427E-2,2.1452026E-2,5.614271E-2,4.270969E-2,-4.7380187E-2,-5.4122385E-2,-4.946347E-2,3.317039E-4,5.4526445E-2,-4.8317105E-2,-1.4048377E-2,5.3995617E-2,3.9121144E-2,3.2986134E-2,4.6915255E-2,1.4729269E-2,3.7189536E-2,-5.4052737E-2,-1.841691E-2,-1.44074E-2,4.6247788E-2],"split_indices":[1,1,0,2,0,2,2,1,4,2,0,4,0,0,1,2,2,0,4,0,2,2,0,1,2,0,0,0,0,0,0,0,0,0,0,0,0,0,0,0,0,0,0,0,0,0,0,0,0,0,0],"split_type":[0,0,0,0,0,0,0,0,0,0,0,0,0,0,0,0,0,0,0,0,0,0,0,0,0,0,0,0,0,0,0,0,0,0,0,0,0,0,0,0,0,0,0,0,0,0,0,0,0,0,0],"sum_hessian":[3.242736E3,1.7505168E3,1.4922192E3,1.1564797E3,5.940372E2,1.3440197E3,1.4819958E2,5.797074E1,1.0985089E3,4.9688013E2,9.715706E1,1.3282054E3,1.5814206E1,4.2716137E1,1.0548345E2,4.2282017E1,1.5688726E1,1.0118291E1,1.0883906E3,8.499656E1,4.1188358E2,9.019256E1,6.964502E0,1.0685117E3,2.5969373E2,2.4919167E0,4.022422E1,1.00235825E2,5.2476287E0,2.4948606E0,3.9787155E1,3.2253027E0,1.2463425E1,2.4966908E0,7.6216006E0,3.534279E2,7.3496277E2,5.04835E1,3.4513058E1,9.622976E1,3.156538E2,7.1067215E1,1.9125345E1,5.4606007E1,1.01390576E3,7.92329E1,1.8046082E2,3.1778616E1,8.445605E0,6.170185E0,9.4065636E1],"tree_param":{"num_deleted":"0","num_feature":"6","num_nodes":"51","size_leaf_vector":"1"}},{"base_weights":[-2.8690426E-3,-1.099528E0,1.2697263E0,-1.6423765E0,-2.1376851E-1,5.3358763E-1,1.466288E0,-1.0063183E0,-1.670547E0,-5.061568E-1,1.3908818E0,-2.04359E-1,1.1310612E0,1.4966656E0,-4.8258036E-2,-1.328161E0,3.9453622E-2,-1.6789871E0,-7.460505E-1,8.303872E-1,-7.8713214E-1,5.2540656E-2,-1.0278667E0,9.026278E-1,-9.545454E-1,1.215399E0,-7.252589E-1,1.5549965E0,1.1170032E0,-4.6041686E-2,4.4517785E-2,-5.0609395E-2,-3.720911E-2,-4.6027683E-2,3.7671227E-2,-3.1566622E-3,5.1050976E-2,-3.7498172E-2,-4.2963913E-3,-5.032482E-2,3.1302433E-2,4.6823952E-2,-4.97963E-2,-1.2889061E-2,-5.360358E-2,3.8042013E-2,-4.0039957E-2,-5.12145E-2,3.6105115E-2,4.7344185E-2,1.7893337E-2,-5.363003E-2,3.849625E-2],"categories":[],"categories_nodes":[],"categories_segments":[],"categories_sizes":[],"default_left":[1,1,0,0,0,0,0,0,1,0,0,0,0,0,0,0,0,0,0,0,0,0,0,0,0,0,0,0,0,0,0,0,0,0,0,0,0,0,0,0,0,0,0,0,0,0,0,0,0,0,0,0,0],"id":8,"left_children":[1,3,5,7,9,11,13,15,17,19,21,23,25,27,-1,29,-1,31,33,35,37,-1,39,41,43,45,47,49,51,-1,-1,-1,-1,-1,-1,-1,-1,-1,-1,-1,-1,-1,-1,-1,-1,-1,-1,-1,-1,-1,-1,-1,-1],"loss_changes":[4.6035312E3,8.515752E2,2.2014429E2,1.7999512E1,3.171171E2,1.4279396E2,1.1491577E2,3.8429745E1,6.942627E0,2.151538E2,9.2660706E1,1.21701485E2,2.8878815E1,2.4688232E1,0E0,2.7613503E1,0E0,1.5541992E0,1.9757881E1,8.145983E1,1.4062439E2,0E0,2.0785397E1,1.0259067E2,3.7334457E1,2.471701E1,1.795893E1,2.1947021E1,8.072502E1,0E0,0E0,0E0,0E0,0E0,0E0,0E0,0E0,0E0,0E0,0E0,0E0,0E0,0E0,0E0,0E0,0E0,0E0,0E0,0E0,0E0,0E0,0E0,0E0],"parents":[2147483647,0,0,1,1,2,2,3,3,4,4,5,5,6,6,7,7,8,8,9,9,10,10,11,11,12,12,13,13,15,15,17,17,18,18,19,19,20,20,22,22,23,23,24,24,25,25,26,26,27,27,28,28],"right_children":[2,4,6,8,10,12,14,16,18,20,22,24,26,28,-1,30,-1,32,34,36,38,-1,40,42,44,46,48,50,52,-1,-1,-1,-1,-1,-1,-1,-1,-1,-1,-1,-1,-1,-1,-1,-1,-1,-1,-1,-1,-1,-1,-1,-1],"split_conditions":[2.49E1,2.11E1,6.8E-1,1.828E1,9.36946E4,5.109E1,4.83329E3,2.05E1,5.1E-1,1.828E1,3.8E-1,1E-1,2.98E1,1.79629E4,-4.8258036E-2,6.29972E4,3.9453622E-2,2.11E1,1.63E1,1.782E1,2.1E-1,5.2540656E-2,2.43E1,2.12812E4,2.71E1,3.69975E3,1.15774E4,1.05441E3,3.76001E0,-4.6041686E-2,4.4517785E-2,-5.0609395E-2,-3.720911E-2,-4.6027683E-2,3.7671227E-2,-3.1566622E-3,5.1050976E-2,-3.7498172E-2,-4.2963913E-3,-5.032482E-2,3.1302433E-2,4.6823952E-2,-4.97963E-2,-1.2889061E-2,-5.360358E-2,3.8042013E-2,-4.0039957E-2,-5.12145E-2,3.6105115E-2,4.7344185E-2,1.7893337E-2,-5.363003E-2,3.849625E-2],"split_indices":[1,1,3,2,0,2,2,1,3,2,3,3,1,0,0,0,0,1,1,2,3,0,1,0,1,2,0,2,3,0,0,0,0,0,0,0,0,0,0,0,0,0,0,0,0,0,0,0,0,0,0,0,0],"split_type":[0,0,0,0,0,0,0,0,0,0,0,0,0,0,0,0,0,0,0,0,0,0,0,0,0,0,0,0,0,0,0,0,0,0,0,0,0,0,0,0,0,0,0,0,0,0,0,0,0,0,0,0,0],"sum_hessian":[3.2965962E3,1.7707706E3,1.5258254E3,1.0973761E3,6.7339453E2,3.223424E2,1.203483E3,4.809807E1,1.0492781E3,5.7018414E2,1.0321045E2,1.4451195E2,1.7783046E2,1.192218E3,1.1264988E1,4.261748E1,5.4805865E0,1.0389767E3,1.0301394E1,9.870563E1,4.714785E2,9.006387E1,1.3146571E1,5.8292065E1,8.621989E1,1.704325E2,7.3979673E0,1.0307578E3,1.6146019E2,4.0124386E1,2.4930968E0,1.01759076E3,2.1385847E1,7.5586653E0,2.7427292E0,4.8020626E1,5.0685E1,2.7376962E2,1.9770888E2,1.0152503E1,2.9940677E0,4.669064E1,1.1601424E1,5.380211E1,3.2417778E1,1.6747623E2,2.9562588E0,4.978447E0,2.4195204E0,1.0058271E3,2.493075E1,8.210703E0,1.532495E2],"tree_param":{"num_deleted":"0","num_feature":"6","num_nodes":"53","size_leaf_vector":"1"}},{"base_weights":[-4.4615757E-2,-1.1063573E0,1.2263255E0,-1.5642939E0,-2.0440336E-1,5.210005E-1,1.4268048E0,-1.6049407E0,-1.041438E0,-5.431067E-1,8.665931E-1,7.683393E-1,-6.1736405E-1,1.4585986E0,-5.174423E-2,-1.6209949E0,-6.3569754E-1,4.1414805E-2,-1.2248036E0,-9.1356003E-1,-1.6952182E-1,1.5121834E0,-8.3824855E-1,8.4371305E-1,-5.3570718E-2,-1.2359838E0,5.72084E-1,-4.5094386E-1,1.4823271E0,-5.037315E-2,-4.680943E-2,-4.759443E-2,4.264155E-2,2.3010815E-2,-4.2972945E-2,-9.819763E-3,-4.869983E-2,-8.505931E-3,4.5083247E-2,4.9867626E-2,-4.3755163E-2,-5.3252492E-2,1.9180255E-2,4.3620862E-2,2.0140082E-2,-4.394424E-2,4.3655567E-2,4.2341653E-2,-1.9790648E-2,4.2238824E-2,-4.6279963E-2,4.5390796E-2,2.2047231E-2],"categories":[],"categories_nodes":[],"categories_segments":[],"categories_sizes":[],"default_left":[1,1,0,0,0,0,1,1,0,0,0,0,0,0,0,0,0,0,0,0,0,1,0,0,0,0,0,0,0,0,0,0,0,0,0,0,0,0,0,0,0,0,0,0,0,0,0,0,0,0,0,0,0],"id":9,"left_children":[1,3,5,7,9,11,13,15,17,19,21,23,25,27,-1,29,31,-1,33,35,37,39,41,43,-1,45,47,49,51,-1,-1,-1,-1,-1,-1,-1,-1,-1,-1,-1,-1,-1,-1,-1,-1,-1,-1,-1,-1,-1,-1,-1,-1],"loss_changes":[4.2598003E3,7.1007324E2,2.0243237E2,2.2568848E1,2.1098398E2,9.045879E1,1.14568115E2,1.5408691E1,3.949353E1,6.0947983E1,1.5515543E2,5.2134247E1,4.3089546E1,5.0855957E1,0E0,1.0422363E0,3.9140385E1,0E0,3.4043358E1,9.1614044E1,4.2571396E1,4.7795334E1,5.518602E1,2.5970047E1,0E0,2.5660488E1,2.2011778E1,3.1317526E1,2.3996582E1,0E0,0E0,0E0,0E0,0E0,0E0,0E0,0E0,0E0,0E0,0E0,0E0,0E0,0E0,0E0,0E0,0E0,0E0,0E0,0E0,0E0,0E0,0E0,0E0],"parents":[2147483647,0,0,1,1,2,2,3,3,4,4,5,5,6,6,7,7,8,8,9,9,10,10,11,11,12,12,13,13,15,15,16,16,18,18,19,19,20,20,21,21,22,22,23,23,25,25,26,26,27,27,28,28],"right_children":[2,4,6,8,10,12,14,16,18,20,22,24,26,28,-1,30,32,-1,34,36,38,40,42,44,-1,46,48,50,52,-1,-1,-1,-1,-1,-1,-1,-1,-1,-1,-1,-1,-1,-1,-1,-1,-1,-1,-1,-1,-1,-1,-1,-1],"split_conditions":[2.49E1,2.17E1,6.8E-1,2.11E1,6.83593E4,4.55771E4,1.3E-1,5.1E-1,6.00826E2,1.8E-1,2.39E1,5.3E-1,8.36947E4,2.73619E2,-5.174423E-2,1.64E1,1.63E1,4.1414805E-2,3E-2,6E-2,5.39563E4,9E-2,1.17789E5,2.42042E3,-5.3570718E-2,2.83E1,2E-1,1.80831E2,8.36947E4,-5.037315E-2,-4.680943E-2,-4.759443E-2,4.264155E-2,2.3010815E-2,-4.2972945E-2,-9.819763E-3,-4.869983E-2,-8.505931E-3,4.5083247E-2,4.9867626E-2,-4.3755163E-2,-5.3252492E-2,1.9180255E-2,4.3620862E-2,2.0140082E-2,-4.394424E-2,4.3655567E-2,4.2341653E-2,-1.9790648E-2,4.2238824E-2,-4.6279963E-2,4.5390796E-2,2.2047231E-2],"split_indices":[1,1,3,1,0,0,4,3,0,3,1,3,0,0,0,1,1,0,3,4,0,4,0,0,0,1,3,0,0,0,0,0,0,0,0,0,0,0,0,0,0,0,0,0,0,0,0,0,0,0,0,0,0],"split_type":[0,0,0,0,0,0,0,0,0,0,0,0,0,0,0,0,0,0,0,0,0,0,0,0,0,0,0,0,0,0,0,0,0,0,0,0,0,0,0,0,0,0,0,0,0,0,0,0,0,0,0,0,0],"sum_hessian":[3.1547788E3,1.7189233E3,1.4358553E3,1.1395972E3,5.793261E2,3.1859058E2,1.1172648E3,1.055475E3,8.41223E1,4.4050806E2,1.3881805E2,2.6199133E2,5.659925E1,1.1066381E3,1.062672E1,1.0376158E3,1.7859098E1,5.4611816E0,7.866112E1,2.2045529E2,2.2005278E2,1.00771034E2,3.8047016E1,2.5513162E2,6.8597145E0,3.7208412E1,1.9390839E1,1.3361595E1,1.0932765E3,5.1641003E2,5.212058E2,1.2370313E1,5.488786E0,7.1712465E0,7.148987E1,1.21534615E2,9.892068E1,2.0678558E2,1.3267201E1,9.634443E1,4.426601E0,2.3160967E1,1.488605E1,5.4551636E1,2.0057999E2,3.4712578E1,2.4958358E0,1.144597E1,7.944869E0,4.836568E0,8.525027E0,1.0491589E3,4.4117573E1],"tree_param":{"num_deleted":"0","num_feature":"6","num_nodes":"53","size_leaf_vector":"1"}},{"base_weights":[1.6587693E-2,7.510244E-1,-6.972112E-1,1.091824E0,-3.370868E-1,-1.3217984E0,-2.8782356E-1,1.3154124E0,4.8826662E-1,-7.264068E-1,9.447334E-2,-3.9413164E-4,-1.4354317E0,3.3146253E-1,-8.102729E-1,7.549344E-1,1.4337859E0,-3.5444248E-1,9.270674E-1,-1.1412432E0,3.7126827E-1,4.7202945E-1,-7.4846625E-1,1.1968517E0,-1.3204346E0,-7.969423E-1,-1.5384759E0,-5.4529876E-1,7.5416714E-1,-9.200623E-1,1.1715137E0,3.0179782E-2,-4.0323786E-2,-5.7072625E-3,4.416293E-2,4.908702E-2,-1.5264615E-2,-5.2752446E-2,3.2239873E-2,2.7382344E-2,-3.5711687E-2,5.3180978E-2,-5.928973E-3,2.8444488E-2,-1.2054942E-2,-2.9539358E-2,3.0048788E-2,-3.481255E-2,4.2566378E-2,-5.06744E-2,-6.9952863E-3,-3.0840132E-2,2.6765823E-2,-4.7082186E-2,-3.1385407E-2,-3.3518035E-2,8.720293E-3,4.2219628E-2,1.1565823E-2,-1.9112403E-2,-4.624955E-2,-4.0237326E-2,4.460766E-2],"categories":[],"categories_nodes":[],"categories_segments":[],"categories_sizes":[],"default_left":[1,0,0,0,1,0,0,0,0,1,1,0,0,0,0,0,0,0,0,0,0,0,0,0,0,0,0,0,0,0,0,0,0,0,0,0,0,0,0,0,0,0,0,0,0,0,0,0,0,0,0,0,0,0,0,0,0,0,0,0,0,0,0],"id":10,"left_children":[1,3,5,7,9,11,13,15,17,19,21,23,25,27,29,31,33,35,37,39,41,43,45,47,49,51,53,55,57,59,61,-1,-1,-1,-1,-1,-1,-1,-1,-1,-1,-1,-1,-1,-1,-1,-1,-1,-1,-1,-1,-1,-1,-1,-1,-1,-1,-1,-1,-1,-1,-1,-1],"loss_changes":[1.6949022E3,5.912769E2,4.1885754E2,1.6314062E2,6.40513E1,9.743384E1,3.211256E2,5.7634277E1,1.2223122E2,9.16408E1,5.811526E1,8.436642E1,3.808545E1,1.6885382E2,1.1817703E2,8.3790764E1,4.5673706E1,3.57445E1,8.792401E1,1.5786682E1,4.4755722E1,5.278959E1,2.4352707E1,1.6297672E1,9.784252E0,3.413322E1,6.175659E0,7.1294464E1,7.339436E1,8.881424E1,2.4732601E1,0E0,0E0,0E0,0E0,0E0,0E0,0E0,0E0,0E0,0E0,0E0,0E0,0E0,0E0,0E0,0E0,0E0,0E0,0E0,0E0,0E0,0E0,0E0,0E0,0E0,0E0,0E0,0E0,0E0,0E0,0E0,0E0],"parents":[2147483647,0,0,1,1,2,2,3,3,4,4,5,5,6,6,7,7,8,8,9,9,10,10,11,11,12,12,13,13,14,14,15,15,16,16,17,17,18,18,19,19,20,20,21,21,22,22,23,23,24,24,25,25,26,26,27,27,28,28,29,29,30,30],"right_children":[2,4,6,8,10,12,14,16,18,20,22,24,26,28,30,32,34,36,38,40,42,44,46,48,50,52,54,56,58,60,62,-1,-1,-1,-1,-1,-1,-1,-1,-1,-1,-1,-1,-1,-1,-1,-1,-1,-1,-1,-1,-1,-1,-1,-1,-1,-1,-1,-1,-1,-1,-1,-1],"split_conditions":[1.608E2,2.12812E4,5.1556E3,1.3E-1,9.93E1,2.069E2,6E-2,6.8E-1,3.72881E3,3E-1,6E-2,2.22204E3,3E-2,2.169E2,3.42E2,1.24E2,2.73619E2,3.4E-1,2.5E-1,2.3207E4,3.2E-1,8.36947E4,1.6E-1,2.1E-1,3.6288E3,3.256E2,4.85537E3,3.2E-1,2.243E2,2.756E2,1E-1,3.0179782E-2,-4.0323786E-2,-5.7072625E-3,4.416293E-2,4.908702E-2,-1.5264615E-2,-5.2752446E-2,3.2239873E-2,2.7382344E-2,-3.5711687E-2,5.3180978E-2,-5.928973E-3,2.8444488E-2,-1.2054942E-2,-2.9539358E-2,3.0048788E-2,-3.481255E-2,4.2566378E-2,-5.06744E-2,-6.9952863E-3,-3.0840132E-2,2.6765823E-2,-4.7082186E-2,-3.1385407E-2,-3.3518035E-2,8.720293E-3,4.2219628E-2,1.1565823E-2,-1.9112403E-2,-4.624955E-2,-4.0237326E-2,4.460766E-2],"split_indices":[5,0,0,4,5,5,4,3,0,3,3,0,4,5,5,5,0,3,4,0,3,0,4,3,0,5,0,3,5,5,3,0,0,0,0,0,0,0,0,0,0,0,0,0,0,0,0,0,0,0,0,0,0,0,0,0,0,0,0,0,0,0,0],"split_type":[0,0,0,0,0,0,0,0,0,0,0,0,0,0,0,0,0,0,0,0,0,0,0,0,0,0,0,0,0,0,0,0,0,0,0,0,0,0,0,0,0,0,0,0,0,0,0,0,0,0,0,0,0,0,0,0,0,0,0,0,0,0,0],"sum_hessian":[3.231066E3,1.5924855E3,1.6385806E3,1.2126702E3,3.7981525E2,6.478902E2,9.906904E2,8.8400885E2,3.2866132E2,1.9932054E2,1.8049472E2,5.1382545E1,5.965076E2,4.5349957E2,5.3719086E2,1.554339E2,7.2857495E2,1.12602486E2,2.1605882E2,1.446241E2,5.4696438E1,1.249632E2,5.553151E1,2.6993444E1,2.4389101E1,8.410487E1,5.124028E2,1.47425E2,3.0607455E2,5.0950064E2,2.7690199E1,1.3929433E2,1.613957E1,1.67E1,7.1187494E2,7.4130974E0,1.0518939E2,1.0687458E1,2.0537135E2,2.9689763E0,1.4165514E2,1.5181729E1,3.9514706E1,8.0835335E1,4.4127876E1,4.9313866E1,6.217645E0,1.9597962E0,2.5033648E1,1.7799376E1,6.5897245E0,7.4328636E1,9.77624E0,4.8005356E2,3.234919E1,8.733468E1,6.0090332E1,1.09408165E2,1.966664E2,3.5150217E2,1.5799849E2,2.7254004E0,2.4964798E1],"tree_param":{"num_deleted":"0","num_feature":"6","num_nodes":"63","size_leaf_vector":"1"}},{"base_weights":[-5.21477E-2,-7.02892E-1,4.8930424E-1,-8.9607215E-1,7.7317363E-1,7.192933E-1,-6.708328E-1,-9.875764E-1,1.2855053E0,-9.4071466E-1,1.2606121E0,-9.218046E-2,1.1861106E0,-1.3841342E0,1.8307838E-1,2.6233062E-1,-1.1530421E0,1.5439047E0,-4.3093067E-2,-3.865668E-1,-5.1439427E-2,1.4612062E0,-3.5288423E-1,1.5488169E0,-3.1030566E-1,1.3162297E0,-1.4171655E-1,4.5943525E-2,-1.4966817E0,6.454112E-1,-9.366266E-1,3.9414722E-2,-1.955577E-2,-1.9238718E-2,-4.0326778E-2,1.9932304E-2,4.796104E-2,-4.494462E-2,9.921392E-3,2.1013023E-2,4.7769725E-2,2.7118728E-2,-4.3719463E-2,4.8721265E-2,2.1841507E-2,-1.4342473E-2,4.6242785E-2,4.2217676E-2,2.7643656E-2,-3.816174E-2,3.516206E-2,3.809327E-2,-4.6550114E-2,2.8020393E-2,-1.9384928E-2,7.1929684E-3,-3.921435E-2],"categories":[],"categories_nodes":[],"categories_segments":[],"categories_sizes":[],"default_left":[0,0,0,0,0,0,1,0,0,0,0,0,1,0,0,0,0,0,0,0,0,0,0,1,1,0,0,0,0,0,0,0,0,0,0,0,0,0,0,0,0,0,0,0,0,0,0,0,0,0,0,0,0,0,0,0,0],"id":11,"left_children":[1,3,5,7,9,11,13,15,17,19,21,23,25,27,29,31,33,35,-1,37,-1,39,41,43,45,47,49,-1,51,53,55,-1,-1,-1,-1,-1,-1,-1,-1,-1,-1,-1,-1,-1,-1,-1,-1,-1,-1,-1,-1,-1,-1,-1,-1,-1,-1],"loss_changes":[1.1041436E3,4.065056E2,4.568858E2,2.5258228E2,1.3922913E2,5.410576E2,1.7294223E2,2.503064E2,3.8168335E1,1.5274727E1,4.2292633E1,1.874787E2,1.5682397E2,5.3020813E1,6.786257E1,1.3748376E2,1.0359912E2,1.2108002E0,0E0,1.8791332E1,0E0,1.0355957E1,2.2247482E1,2.6123962E0,1.4425851E2,2.8377686E1,1.22988014E2,0E0,2.469049E1,3.510033E1,1.7040768E1,0E0,0E0,0E0,0E0,0E0,0E0,0E0,0E0,0E0,0E0,0E0,0E0,0E0,0E0,0E0,0E0,0E0,0E0,0E0,0E0,0E0,0E0,0E0,0E0,0E0,0E0],"parents":[2147483647,0,0,1,1,2,2,3,3,4,4,5,5,6,6,7,7,8,8,9,9,10,10,11,11,12,12,13,13,14,14,15,15,16,16,17,17,19,19,21,21,22,22,23,23,24,24,25,25,26,26,28,28,29,29,30,30],"right_children":[2,4,6,8,10,12,14,16,18,20,22,24,26,28,30,32,34,36,-1,38,-1,40,42,44,46,48,50,-1,52,54,56,-1,-1,-1,-1,-1,-1,-1,-1,-1,-1,-1,-1,-1,-1,-1,-1,-1,-1,-1,-1,-1,-1,-1,-1,-1,-1],"split_conditions":[4.8E-1,8.36947E4,3.67533E4,2.53334E3,7.749E1,5.1556E3,3.1813E2,1.913E1,3.69975E3,1.6E-1,1.1E-1,9.57E0,1.2E-1,5.2E-1,1.2E-1,7E-2,5E-2,2.8657E3,-4.3093067E-2,1.1E-1,-5.1439427E-2,2.2E-1,1.12719E5,1.2E-1,1.1E0,1.2E-1,2.14683E4,4.5943525E-2,4.35603E4,3.65517E3,1.2964E3,3.9414722E-2,-1.955577E-2,-1.9238718E-2,-4.0326778E-2,1.9932304E-2,4.796104E-2,-4.494462E-2,9.921392E-3,2.1013023E-2,4.7769725E-2,2.7118728E-2,-4.3719463E-2,4.8721265E-2,2.1841507E-2,-1.4342473E-2,4.6242785E-2,4.2217676E-2,2.7643656E-2,-3.816174E-2,3.516206E-2,3.809327E-2,-4.6550114E-2,2.8020393E-2,-1.9384928E-2,7.1929684E-3,-3.921435E-2],"split_indices":[3,0,0,2,2,0,2,2,2,3,4,2,4,3,4,4,4,2,0,3,0,3,0,4,3,4,0,0,0,2,2,0,0,0,0,0,0,0,0,0,0,0,0,0,0,0,0,0,0,0,0,0,0,0,0,0,0],"split_type":[0,0,0,0,0,0,0,0,0,0,0,0,0,0,0,0,0,0,0,0,0,0,0,0,0,0,0,0,0,0,0,0,0,0,0,0,0,0,0,0,0,0,0,0,0,0,0,0,0,0,0,0,0,0,0,0,0],"sum_hessian":[3.1317085E3,1.4221721E3,1.7095364E3,1.257933E3,1.642391E2,1.4270197E3,2.8251663E2,1.2078195E3,5.0113564E1,3.6161453E1,1.2807765E2,5.2142444E2,9.055953E2,1.5359366E2,1.2892299E2,1.4113295E2,1.0666865E3,4.616392E1,3.949643E0,2.1946737E1,1.4214717E1,1.1399934E2,1.4078309E1,6.046138E1,4.6096304E2,8.247805E2,8.081479E1,5.2400928E0,1.4835356E2,9.1546486E1,3.73765E1,6.5434074E1,7.569888E1,2.913011E2,7.753854E2,3.477327E0,4.2686592E1,8.180517E0,1.3766219E1,1.7691557E1,9.6307785E1,6.669706E0,7.408603E0,5.448867E1,5.9727077E0,4.2334732E2,3.7615707E1,6.681543E2,1.566262E2,4.345724E1,3.7357548E1,2.460786E0,1.4589278E2,7.505282E1,1.6493671E1,9.0370035E0,2.8339497E1],"tree_param":{"num_deleted":"0","num_feature":"6","num_nodes":"57","size_leaf_vector":"1"}},{"base_weights":[2.2410749E-2,5.111562E-1,-1.0099567E0,9.533426E-1,-2.8315383E-1,1.1700645E-1,-1.254134E0,1.2533085E0,4.381922E-1,-5.9588397E-1,1.1922567E0,-1.1342053E0,9.693108E-1,-1.3170582E0,6.857768E-1,1.2919918E0,-4.932737E-2,-2.1478963E-1,7.51616E-1,-2.1478756E-1,-9.3326604E-1,1.4245561E0,-9.8110276E-1,-1.4499806E0,8.8435996E-1,-4.21092E-2,1.0649494E0,-4.8673326E-1,-1.4429862E0,-3.2112825E-1,4.3383148E-2,2.6154928E-2,4.1887254E-2,5.09914E-3,-3.9862704E-2,2.951787E-2,-4.24107E-3,-1.9699182E-2,3.931126E-3,4.7536343E-3,-3.0524064E-2,4.533347E-2,-4.1538104E-2,-4.8080705E-2,1.3525454E-2,-1.1422888E-2,-4.7149576E-2,-3.3226144E-2,4.5102846E-2,2.3083718E-2,4.3085773E-2,-2.0586506E-2,3.008122E-2,-4.5191493E-2,-1.987068E-2,3.907616E-2,-2.5509322E-2],"categories":[],"categories_nodes":[],"categories_segments":[],"categories_sizes":[],"default_left":[1,0,0,0,1,0,0,0,0,0,0,0,0,0,1,0,0,0,1,0,0,0,1,0,0,0,0,1,0,0,0,0,0,0,0,0,0,0,0,0,0,0,0,0,0,0,0,0,0,0,0,0,0,0,0,0,0],"id":12,"left_children":[1,3,5,7,9,11,13,15,17,19,21,23,25,27,29,31,-1,33,35,37,39,41,43,45,47,-1,49,51,53,55,-1,-1,-1,-1,-1,-1,-1,-1,-1,-1,-1,-1,-1,-1,-1,-1,-1,-1,-1,-1,-1,-1,-1,-1,-1,-1,-1],"loss_changes":[1.6152197E3,7.6336194E2,2.8319092E2,2.1515344E2,3.5955582E2,1.9741333E2,1.0411047E2,1.00946655E2,1.056082E2,8.2392624E1,7.0236694E1,4.9119995E1,2.6467506E1,8.496167E1,2.1304153E1,3.691638E1,0E0,7.217949E1,7.240553E1,4.6376823E1,3.1455475E1,3.214479E1,1.2968903E1,7.8936157E0,1.4950036E1,0E0,1.05607605E1,3.3192368E1,3.4183228E1,1.187331E1,0E0,0E0,0E0,0E0,0E0,0E0,0E0,0E0,0E0,0E0,0E0,0E0,0E0,0E0,0E0,0E0,0E0,0E0,0E0,0E0,0E0,0E0,0E0,0E0,0E0,0E0,0E0],"parents":[2147483647,0,0,1,1,2,2,3,3,4,4,5,5,6,6,7,7,8,8,9,9,10,10,11,11,12,12,13,13,14,14,15,15,17,17,18,18,19,19,20,20,21,21,22,22,23,23,24,24,26,26,27,27,28,28,29,29],"right_children":[2,4,6,8,10,12,14,16,18,20,22,24,26,28,30,32,-1,34,36,38,40,42,44,46,48,-1,50,52,54,56,-1,-1,-1,-1,-1,-1,-1,-1,-1,-1,-1,-1,-1,-1,-1,-1,-1,-1,-1,-1,-1,-1,-1,-1,-1,-1,-1],"split_conditions":[2.243E2,1.96344E4,3E-2,1.608E2,2.169E2,5.0445E3,3.42E2,1.4E-1,3.6288E3,1.594E2,6E-2,3.256E2,4E-2,2.581E2,1.5E-1,8.5E-1,-4.932737E-2,3.24901E3,7E-2,9.93E1,3E-2,2.6E-1,2.3E-1,1E-2,6E-2,-4.21092E-2,2.956E2,1.1E0,1.55071E4,8E-2,4.3383148E-2,2.6154928E-2,4.1887254E-2,5.09914E-3,-3.9862704E-2,2.951787E-2,-4.24107E-3,-1.9699182E-2,3.931126E-3,4.7536343E-3,-3.0524064E-2,4.533347E-2,-4.1538104E-2,-4.8080705E-2,1.3525454E-2,-1.1422888E-2,-4.7149576E-2,-3.3226144E-2,4.5102846E-2,2.3083718E-2,4.3085773E-2,-2.0586506E-2,3.008122E-2,-4.5191493E-2,-1.987068E-2,3.907616E-2,-2.5509322E-2],"split_indices":[5,0,4,5,5,0,5,4,0,5,4,5,3,5,3,3,0,0,3,5,4,3,3,4,3,0,5,3,0,3,0,0,0,0,0,0,0,0,0,0,0,0,0,0,0,0,0,0,0,0,0,0,0,0,0,0,0],"split_type":[0,0,0,0,0,0,0,0,0,0,0,0,0,0,0,0,0,0,0,0,0,0,0,0,0,0,0,0,0,0,0,0,0,0,0,0,0,0,0,0,0,0,0,0,0,0,0,0,0,0,0,0,0,0,0,0,0],"sum_hessian":[3.1991902E3,2.1716082E3,1.0275822E3,1.3948855E3,7.7672253E2,1.8308806E2,8.44494E2,8.806568E2,5.1422876E2,6.4137244E2,1.353501E2,7.404975E1,1.090383E2,8.182731E2,2.622095E1,8.6960144E2,1.1055332E1,1.6687628E2,3.4735245E2,3.0194324E2,3.394292E2,1.2259146E2,1.2758643E1,6.427633E1,9.773423E0,3.6945243E0,1.0534378E2,1.0839822E2,7.098749E2,1.1529732E1,1.4691216E1,1.747333E2,6.9486816E2,1.2466483E2,4.221145E1,2.755622E2,7.179027E1,1.3217186E2,1.6977138E2,2.42419E1,3.151873E2,1.1937518E2,3.2162757E0,8.813575E0,3.9450688E0,6.9889426E0,5.7287384E1,2.130225E0,7.643198E0,6.0367073E1,4.4976707E1,9.607058E1,1.2327637E1,6.556946E2,5.4180305E1,2.4748483E0,9.054884E0],"tree_param":{"num_deleted":"0","num_feature":"6","num_nodes":"57","size_leaf_vector":"1"}},{"base_weights":[-1.6050097E-2,-1.0197725E0,1.1738545E0,-1.4975524E0,-1.3765901E-1,5.267259E-1,1.3594626E0,-1.5195578E0,3.1786537E-1,-5.6678456E-1,3.9257875E-1,8.6368576E-2,1.0907012E0,1.3816022E0,-8.9308953E-1,2.7851816E-2,-1.5276448E0,-3.914226E-2,8.1696594E-1,1.9803771E-1,-9.146627E-1,9.235863E-1,-9.374371E-1,4.6035212E-1,-7.920857E-1,-4.516864E-2,1.1327637E0,1.4183968E0,1.1090102E0,-4.8052628E-2,3.699931E-2,-4.7138438E-2,-3.652772E-2,3.5321523E-2,7.4652494E-3,2.0142866E-2,-1.4903268E-2,1.1755619E-2,-3.4411144E-2,3.926931E-2,2.8604355E-3,3.5093676E-2,-3.6554575E-2,8.031463E-3,4.369334E-2,-6.246022E-4,-4.3144867E-2,4.1495927E-2,2.6635895E-2,2.1509366E-2,4.270792E-2,4.5689788E-2,1.9307127E-2],"categories":[],"categories_nodes":[],"categories_segments":[],"categories_sizes":[],"default_left":[1,1,0,1,0,0,1,0,1,0,1,0,0,1,0,0,0,0,0,0,0,1,0,0,0,0,0,0,0,0,0,0,0,0,0,0,0,0,0,0,0,0,0,0,0,0,0,0,0,0,0,0,0],"id":13,"left_children":[1,3,5,7,9,11,13,15,17,19,21,23,25,27,29,-1,31,-1,33,35,37,39,41,43,45,-1,47,49,51,-1,-1,-1,-1,-1,-1,-1,-1,-1,-1,-1,-1,-1,-1,-1,-1,-1,-1,-1,-1,-1,-1,-1,-1],"loss_changes":[3.7621968E3,7.199314E2,1.7240747E2,4.475708E1,1.3707005E2,8.009656E1,5.706128E1,2.3098633E1,1.2484584E1,8.873172E1,1.9127742E2,6.028946E1,1.7157227E1,9.550049E0,1.930942E1,0E0,1.2860107E1,0E0,2.0408978E0,3.4828735E1,6.995653E1,6.1539154E1,4.7278625E1,2.4280607E1,2.7293804E1,0E0,7.346298E0,2.5302734E0,2.5315308E1,0E0,0E0,0E0,0E0,0E0,0E0,0E0,0E0,0E0,0E0,0E0,0E0,0E0,0E0,0E0,0E0,0E0,0E0,0E0,0E0,0E0,0E0,0E0,0E0],"parents":[2147483647,0,0,1,1,2,2,3,3,4,4,5,5,6,6,7,7,8,8,9,9,10,10,11,11,12,12,13,13,14,14,16,16,18,18,19,19,20,20,21,21,22,22,23,23,24,24,26,26,27,27,28,28],"right_children":[2,4,6,8,10,12,14,16,18,20,22,24,26,28,30,-1,32,-1,34,36,38,40,42,44,46,-1,48,50,52,-1,-1,-1,-1,-1,-1,-1,-1,-1,-1,-1,-1,-1,-1,-1,-1,-1,-1,-1,-1,-1,-1,-1,-1],"split_conditions":[2.49E1,2.17E1,7.9E-1,3.42E2,2.059E2,2.84E1,1.3E-1,1.51E1,7E-2,1.03E2,2.301E2,2.71E1,4.05E1,1.766E2,2.83E1,2.7851816E-2,2.05E1,-3.914226E-2,1.2E-1,9E-2,2.29E1,6E-2,2E-2,1.6E-1,8E-2,-4.516864E-2,1.2E-1,6.9E0,2.86E1,-4.8052628E-2,3.699931E-2,-4.7138438E-2,-3.652772E-2,3.5321523E-2,7.4652494E-3,2.0142866E-2,-1.4903268E-2,1.1755619E-2,-3.4411144E-2,3.926931E-2,2.8604355E-3,3.5093676E-2,-3.6554575E-2,8.031463E-3,4.369334E-2,-6.246022E-4,-4.3144867E-2,4.1495927E-2,2.6635895E-2,2.1509366E-2,4.270792E-2,4.5689788E-2,1.9307127E-2],"split_indices":[1,1,3,5,5,1,4,5,3,5,5,1,5,5,1,0,1,0,4,4,1,4,4,4,4,0,3,5,1,0,0,0,0,0,0,0,0,0,0,0,0,0,0,0,0,0,0,0,0,0,0,0,0],"split_type":[0,0,0,0,0,0,0,0,0,0,0,0,0,0,0,0,0,0,0,0,0,0,0,0,0,0,0,0,0,0,0,0,0,0,0,0,0,0,0,0,0,0,0,0,0,0,0,0,0,0,0,0,0],"sum_hessian":[3.1480356E3,1.7076888E3,1.4403469E3,1.1072632E3,6.004256E2,3.2189334E2,1.1184535E3,1.0941633E3,1.3099816E1,3.3181567E2,2.6860995E2,1.814043E2,1.4048906E2,1.1079506E3,1.0503024E1,3.228013E0,1.0909353E3,2.7018254E0,1.0397991E1,1.0387456E2,2.2794113E2,1.9218561E2,7.642434E1,1.2756999E2,5.3834305E1,1.6850297E0,1.3880403E2,9.7248096E2,1.3546954E2,8.0627E0,2.4403243E0,9.5277527E2,1.3816008E2,5.7058144E0,4.6921763E0,6.1801514E1,4.207304E1,3.431587E1,1.9362526E2,1.3076051E2,6.1425095E1,8.621377E0,6.780296E1,1.07960106E2,1.9609888E1,2.5010178E1,2.882413E1,6.632869E1,7.2475334E1,8.179139E0,9.643018E2,7.049551E1,6.4974045E1],"tree_param":{"num_deleted":"0","num_feature":"6","num_nodes":"53","size_leaf_vector":"1"}},{"base_weights":[3.979173E-2,4.3677896E-1,-1.0612165E0,8.189892E-1,-2.0958439E-1,-1.2238503E0,7.5779164E-1,1.2384026E0,3.7445793E-1,-4.7335234E-1,6.4300716E-1,-5.2534822E-2,-1.4009205E0,8.881562E-1,-4.1007407E-2,1.2781022E0,-4.7363777E-2,-8.489218E-1,5.447163E-1,-2.9264985E-2,-8.344687E-1,1.1003653E0,-9.310827E-1,-1.1395938E0,7.288978E-1,-1.4842079E0,-4.1077426E-1,-3.0970914E-2,1.1756085E0,1.2132726E-2,3.924803E-2,3.0660817E-2,-3.0274421E-2,-8.19725E-4,2.726378E-2,-1.620393E-2,7.377273E-3,-2.9068217E-2,-5.19379E-3,4.2874232E-2,-1.14519475E-2,-1.3271298E-3,-4.0288117E-2,1.1275883E-2,-4.5136362E-2,-4.6593387E-2,3.3685826E-2,-3.650924E-2,-4.5161042E-2,3.3088263E-2,-2.3332288E-2,3.2826E-2,-4.3720763E-2,-3.9528087E-2,3.9071053E-2],"categories":[],"categories_nodes":[],"categories_segments":[],"categories_sizes":[],"default_left":[1,0,0,0,1,0,0,0,0,0,0,0,0,0,0,0,0,0,0,0,0,0,0,0,0,0,0,1,1,0,0,0,0,0,0,0,0,0,0,0,0,0,0,0,0,0,0,0,0,0,0,0,0,0,0],"id":14,"left_children":[1,3,5,7,9,11,13,15,17,19,21,23,25,27,-1,29,-1,31,33,35,37,39,41,43,45,47,49,51,53,-1,-1,-1,-1,-1,-1,-1,-1,-1,-1,-1,-1,-1,-1,-1,-1,-1,-1,-1,-1,-1,-1,-1,-1,-1,-1],"loss_changes":[1.3905491E3,5.7782214E2,2.503501E2,2.7352478E2,1.9587961E2,1.605221E2,2.0551239E1,8.65376E1,1.4935927E2,1.0658115E2,1.4925928E2,8.8088745E1,5.4856445E1,1.757518E1,0E0,1.9125366E1,0E0,2.7328465E1,1.3084286E2,4.218876E1,3.243405E1,7.851242E1,1.7070358E1,2.4540913E1,5.6019688E1,1.6740723E0,3.0614418E1,2.8540262E1,1.7705673E1,0E0,0E0,0E0,0E0,0E0,0E0,0E0,0E0,0E0,0E0,0E0,0E0,0E0,0E0,0E0,0E0,0E0,0E0,0E0,0E0,0E0,0E0,0E0,0E0,0E0,0E0],"parents":[2147483647,0,0,1,1,2,2,3,3,4,4,5,5,6,6,7,7,8,8,9,9,10,10,11,11,12,12,13,13,15,15,17,17,18,18,19,19,20,20,21,21,22,22,23,23,24,24,25,25,26,26,27,27,28,28],"right_children":[2,4,6,8,10,12,14,16,18,20,22,24,26,28,-1,30,-1,32,34,36,38,40,42,44,46,48,50,52,54,-1,-1,-1,-1,-1,-1,-1,-1,-1,-1,-1,-1,-1,-1,-1,-1,-1,-1,-1,-1,-1,-1,-1,-1,-1,-1],"split_conditions":[2.581E2,1.96344E4,3.313E2,1.326E2,2.169E2,3E-2,6.29972E4,1.4E-1,2.1E-1,1.46E2,2.6E-1,5.0445E3,1.38486E4,5.11732E3,-4.1007407E-2,2.73619E2,-4.7363777E-2,3E-2,4.84457E3,2.8E-1,1.12719E5,6E-2,5E-2,1E-2,1.5E-1,2.728E2,3.56109E4,1.2E-1,4E-2,1.2132726E-2,3.924803E-2,3.0660817E-2,-3.0274421E-2,-8.19725E-4,2.726378E-2,-1.620393E-2,7.377273E-3,-2.9068217E-2,-5.19379E-3,4.2874232E-2,-1.14519475E-2,-1.3271298E-3,-4.0288117E-2,1.1275883E-2,-4.5136362E-2,-4.6593387E-2,3.3685826E-2,-3.650924E-2,-4.5161042E-2,3.3088263E-2,-2.3332288E-2,3.2826E-2,-4.3720763E-2,-3.9528087E-2,3.9071053E-2],"split_indices":[5,0,5,5,5,4,0,4,3,5,3,0,0,0,0,0,0,3,0,3,0,4,4,4,3,5,0,3,3,0,0,0,0,0,0,0,0,0,0,0,0,0,0,0,0,0,0,0,0,0,0,0,0,0,0],"split_type":[0,0,0,0,0,0,0,0,0,0,0,0,0,0,0,0,0,0,0,0,0,0,0,0,0,0,0,0,0,0,0,0,0,0,0,0,0,0,0,0,0,0,0,0,0,0,0,0,0,0,0,0,0,0,0],"sum_hessian":[3.1793464E3,2.3372239E3,8.421225E2,1.4685612E3,8.686627E2,7.733097E2,6.881284E1,7.5470984E2,7.138513E2,6.637591E2,2.0490367E2,1.0172143E2,6.7158826E2,6.538314E1,3.4296975E0,7.4476105E2,9.94878E0,8.672303E1,6.271283E2,2.9816635E2,3.655927E2,1.5900507E2,4.589861E1,4.234982E1,5.937161E1,6.190197E2,5.2568554E1,1.5789278E1,4.9593864E1,2.5336977E1,7.194241E2,6.416706E0,8.030632E1,2.4426369E2,3.8286462E2,1.0404392E2,1.9412244E2,3.0343057E2,6.2162148E1,1.301659E2,2.8839163E1,1.4906943E1,3.0991667E1,8.213495E0,3.4136322E1,8.307655E0,5.1063953E1,4.9712563E1,5.693071E2,9.866108E0,4.2702446E1,8.956808E0,6.83247E0,1.9449364E0,4.764893E1],"tree_param":{"num_deleted":"0","num_feature":"6","num_nodes":"55","size_leaf_vector":"1"}},{"base_weights":[-4.4127125E-3,-9.8004234E-1,1.1387906E0,-1.4303246E0,-1.3930711E-1,5.430241E-1,1.3153605E0,-1.4922155E0,-1.0218453E0,-3.9030224E-1,1.2364763E0,7.50536E-1,-5.92401E-1,1.3399817E0,-9.347801E-1,-1.5100265E0,-4.6702373E-1,9.500647E-1,-1.1736264E0,1.0057235E0,-5.307309E-1,1.4857451E0,-4.6213273E-2,1.103441E0,3.9553434E-1,-8.534151E-1,4.657435E-2,-5.089671E-1,1.3635446E0,-4.7329266E-2,3.624141E-2,-4.748984E-2,-4.315467E-2,-4.3834783E-2,4.2987037E-2,4.6432506E-2,-3.540777E-2,-3.688779E-2,2.528588E-2,-1.7545857E-2,3.958319E-2,-9.322038E-3,-3.6432467E-2,4.6569306E-2,7.964735E-3,3.818451E-2,6.7281667E-3,3.9332606E-2,2.9757593E-3,-3.9777916E-2,6.6960473E-3,4.0232487E-2,-4.6902493E-2,4.1687492E-2,2.2964206E-2],"categories":[],"categories_nodes":[],"categories_segments":[],"categories_sizes":[],"default_left":[1,1,0,0,0,0,1,1,0,0,0,0,0,0,0,1,0,1,1,0,0,0,0,0,0,0,0,0,0,0,0,0,0,0,0,0,0,0,0,0,0,0,0,0,0,0,0,0,0,0,0,0,0,0,0],"id":15,"left_children":[1,3,5,7,9,11,13,15,17,19,21,23,25,27,29,31,33,35,37,39,41,43,-1,45,47,49,-1,51,53,-1,-1,-1,-1,-1,-1,-1,-1,-1,-1,-1,-1,-1,-1,-1,-1,-1,-1,-1,-1,-1,-1,-1,-1,-1,-1],"loss_changes":[3.4225298E3,6.265718E2,1.4792053E2,2.5730225E1,2.0026874E2,7.6955475E1,6.15968E1,1.6350098E1,4.4520676E1,9.660535E1,6.424477E1,3.4015182E1,2.972934E1,4.76521E1,1.8957638E1,2.5131836E0,3.4955128E1,1.5727735E1,1.6284027E1,2.3293964E1,6.669269E1,6.3006134E0,0E0,2.0166595E1,3.7487503E1,2.3634552E1,0E0,2.9976028E1,1.5514526E1,0E0,0E0,0E0,0E0,0E0,0E0,0E0,0E0,0E0,0E0,0E0,0E0,0E0,0E0,0E0,0E0,0E0,0E0,0E0,0E0,0E0,0E0,0E0,0E0,0E0,0E0],"parents":[2147483647,0,0,1,1,2,2,3,3,4,4,5,5,6,6,7,7,8,8,9,9,10,10,11,11,12,12,13,13,14,14,15,15,16,16,17,17,18,18,19,19,20,20,21,21,23,23,24,24,25,25,27,27,28,28],"right_children":[2,4,6,8,10,12,14,16,18,20,22,24,26,28,30,32,34,36,38,40,42,44,-1,46,48,50,-1,52,54,-1,-1,-1,-1,-1,-1,-1,-1,-1,-1,-1,-1,-1,-1,-1,-1,-1,-1,-1,-1,-1,-1,-1,-1,-1,-1],"split_conditions":[2.49E1,2.17E1,7.9E-1,2.05E1,9.36946E4,4.55771E4,1.3E-1,5.1E-1,2E-2,2.19E1,1.77548E5,7E-2,2.85E1,2.73619E2,1.24238E5,9E-2,1.56E1,2.13E1,4.8E-1,1.39672E4,2.4E1,3.8E-1,-4.6213273E-2,3.2E-1,2.42042E3,8.36947E4,4.657435E-2,1.80831E2,8.36947E4,-4.7329266E-2,3.624141E-2,-4.748984E-2,-4.315467E-2,-4.3834783E-2,4.2987037E-2,4.6432506E-2,-3.540777E-2,-3.688779E-2,2.528588E-2,-1.7545857E-2,3.958319E-2,-9.322038E-3,-3.6432467E-2,4.6569306E-2,7.964735E-3,3.818451E-2,6.7281667E-3,3.9332606E-2,2.9757593E-3,-3.9777916E-2,6.6960473E-3,4.0232487E-2,-4.6902493E-2,4.1687492E-2,2.2964206E-2],"split_indices":[1,1,3,1,0,0,4,3,4,1,0,4,1,0,0,4,1,1,3,0,1,3,0,3,0,0,0,0,0,0,0,0,0,0,0,0,0,0,0,0,0,0,0,0,0,0,0,0,0,0,0,0,0,0,0],"split_type":[0,0,0,0,0,0,0,0,0,0,0,0,0,0,0,0,0,0,0,0,0,0,0,0,0,0,0,0,0,0,0,0,0,0,0,0,0,0,0,0,0,0,0,0,0,0,0,0,0,0,0,0,0,0,0],"sum_hessian":[3.0665889E3,1.6546362E3,1.4119526E3,1.0770741E3,5.7756213E2,3.237293E2,1.0882234E3,9.3304944E2,1.4402461E2,4.8905603E2,8.850609E1,2.7399295E2,4.973636E1,1.076845E3,1.13784E1,9.1665125E2,1.6398197E1,9.917606E0,1.3410701E2,4.4135506E1,4.449205E2,8.1642456E1,6.8636317E0,1.3634499E2,1.3764796E2,4.487728E1,4.8590784E0,1.3291361E1,1.0635536E3,8.95546E0,2.4229398E0,4.4332785E2,4.733234E2,1.0916879E1,5.4813185E0,7.9582887E0,1.9593172E0,1.3086514E2,3.241865E0,7.1285353E0,3.700697E1,3.377074E2,1.0721312E2,7.716118E1,4.481281E0,1.1394516E2,2.239982E1,3.2821472E1,1.04826485E2,3.1027897E1,1.3849383E1,4.726609E0,8.564752E0,1.0179127E3,4.564085E1],"tree_param":{"num_deleted":"0","num_feature":"6","num_nodes":"55","size_leaf_vector":"1"}},{"base_weights":[1.3848204E-2,-5.556935E-1,4.796928E-1,-6.780837E-1,1.2414016E0,6.8617535E-1,-5.73301E-1,-1.0677025E0,-1.7055006E-1,1.357511E0,-4.21474E-2,-2.2857698E-2,1.0860056E0,-1.1891155E0,1.6279103E-1,6.058937E-2,-1.2481179E0,-6.391311E-1,1.1364709E0,8.085207E-1,4.56481E-2,1.726405E-1,-4.4442892E-2,1.2003921E0,8.987702E-3,4.5692787E-2,-1.2964914E0,5.4560024E-1,-1.004082E0,2.354272E-2,-4.9968325E-2,-3.130405E-2,-4.233362E-2,1.4758417E-2,-3.0450474E-2,-2.9355465E-3,4.290126E-2,-4.4681955E-2,4.202194E-2,4.3222453E-2,8.7351544E-4,3.741916E-2,1.43600805E-2,-2.582346E-2,3.281622E-2,3.639011E-2,-4.0415507E-2,2.3422783E-2,-1.0419139E-2,3.563892E-2,-3.669838E-2],"categories":[],"categories_nodes":[],"categories_segments":[],"categories_sizes":[],"default_left":[0,0,0,0,0,0,1,0,0,0,0,1,1,0,0,0,0,0,0,0,0,0,0,1,0,0,0,0,0,0,0,0,0,0,0,0,0,0,0,0,0,0,0,0,0,0,0,0,0,0,0],"id":16,"left_children":[1,3,5,7,9,11,13,15,17,19,-1,21,23,25,27,29,31,33,35,37,-1,39,-1,41,43,-1,45,47,49,-1,-1,-1,-1,-1,-1,-1,-1,-1,-1,-1,-1,-1,-1,-1,-1,-1,-1,-1,-1,-1,-1],"loss_changes":[8.175479E2,3.0577628E2,3.689252E2,2.566186E2,2.9177597E1,4.018924E2,1.2640297E2,1.4958636E2,3.4686316E2,6.474823E0,0E0,1.4628525E2,1.11659424E2,4.615915E1,5.759319E1,1.2907172E2,1.9652405E1,1.7764577E2,5.4316116E1,3.1774597E1,0E0,8.231174E1,0E0,2.7146484E1,8.4011284E1,0E0,2.026828E1,2.0598427E1,1.6780296E1,0E0,0E0,0E0,0E0,0E0,0E0,0E0,0E0,0E0,0E0,0E0,0E0,0E0,0E0,0E0,0E0,0E0,0E0,0E0,0E0,0E0,0E0],"parents":[2147483647,0,0,1,1,2,2,3,3,4,4,5,5,6,6,7,7,8,8,9,9,11,11,12,12,13,13,14,14,15,15,16,16,17,17,18,18,19,19,21,21,23,23,24,24,26,26,27,27,28,28],"right_children":[2,4,6,8,10,12,14,16,18,20,-1,22,24,26,28,30,32,34,36,38,-1,40,-1,42,44,-1,46,48,50,-1,-1,-1,-1,-1,-1,-1,-1,-1,-1,-1,-1,-1,-1,-1,-1,-1,-1,-1,-1,-1,-1],"split_conditions":[4.8E-1,2.32187E3,3.67533E4,1.41832E4,3.69975E3,5.1556E3,3.1813E2,2.874E1,7.785E1,2.8657E3,-4.21474E-2,1.3E-1,1.2E-1,5.2E-1,1.3E-1,9E-2,9.112E1,1.913E1,1.8E-1,1.5E-1,4.56481E-2,9.57E0,-4.4442892E-2,1.06244E3,2.14683E4,4.5692787E-2,4.35603E4,3.65517E3,3.2258E2,2.354272E-2,-4.9968325E-2,-3.130405E-2,-4.233362E-2,1.4758417E-2,-3.0450474E-2,-2.9355465E-3,4.290126E-2,-4.4681955E-2,4.202194E-2,4.3222453E-2,8.7351544E-4,3.741916E-2,1.43600805E-2,-2.582346E-2,3.281622E-2,3.639011E-2,-4.0415507E-2,2.3422783E-2,-1.0419139E-2,3.563892E-2,-3.669838E-2],"split_indices":[3,2,0,0,2,0,2,2,2,2,0,4,4,3,4,4,2,2,3,3,0,2,0,2,0,0,0,2,2,0,0,0,0,0,0,0,0,0,0,0,0,0,0,0,0,0,0,0,0,0,0],"split_type":[0,0,0,0,0,0,0,0,0,0,0,0,0,0,0,0,0,0,0,0,0,0,0,0,0,0,0,0,0,0,0,0,0,0,0,0,0,0,0,0,0,0,0,0,0,0,0,0,0,0,0],"sum_hessian":[3.079385E3,1.3854008E3,1.6939843E3,1.2976478E3,8.775294E1,1.4165583E3,2.774259E2,7.33476E2,5.641718E2,8.453108E1,3.2218573E0,5.1111783E2,9.0544055E2,1.50719E2,1.26706924E2,1.0120687E2,6.322691E2,4.1566312E2,1.485087E2,2.0815994E1,6.3715084E1,4.5148514E2,5.9632706E1,8.1840576E2,8.7034744E1,5.2376003E0,1.4548138E2,9.5808136E1,3.0898788E1,7.168097E1,2.9525904E1,2.836053E2,3.4866385E2,1.03602646E2,3.120605E2,2.8662718E1,1.1984598E2,3.9549322E0,1.6861061E1,4.498442E1,4.065007E2,7.677712E2,5.06346E1,4.8421257E1,3.8613487E1,2.4265668E0,1.4305482E2,7.5935135E1,1.9873003E1,2.407127E0,2.8491661E1],"tree_param":{"num_deleted":"0","num_feature":"6","num_nodes":"51","size_leaf_vector":"1"}},{"base_weights":[1.9299904E-2,-9.7179735E-1,1.124071E0,-1.4364103E0,-2.205284E-1,1.244221E0,6.6830206E-1,3.583223E-2,-1.4448417E0,7.727478E-1,-4.0067288E-1,1.2802044E0,-8.339493E-1,-8.068569E-2,1.1267993E0,-1.4526315E0,4.1912984E-2,-6.1160576E-2,4.8056796E-2,-9.150223E-1,9.180193E-2,1.3047773E0,7.831393E-2,-1.194938E0,3.772833E-2,-1.4896097E0,6.511202E-1,1.2212461E0,-7.106543E-1,-2.0359213E-2,-4.4048123E-2,3.5725694E-2,-3.6640354E-2,3.3648215E-2,-6.9379015E-3,-4.2254824E-2,-1.8910488E-2,4.236744E-2,-1.8491073E-2,2.9863253E-2,4.0053606E-2,-4.5917522E-2,2.7523227E-2,-4.9322356E-2,2.9420307E-2,-4.744057E-3,-5.1454227E-2,3.3928547E-2,-3.21404E-2,-3.95611E-2,3.801271E-2,-4.7684595E-2,4.0722836E-2],"categories":[],"categories_nodes":[],"categories_segments":[],"categories_sizes":[],"default_left":[1,1,1,0,1,1,0,0,1,0,0,1,0,0,0,0,0,0,0,0,0,0,0,0,0,0,0,0,0,0,0,0,0,0,0,0,0,0,0,0,0,0,0,0,0,0,0,0,0,0,0,0,0],"id":17,"left_children":[1,3,5,7,9,11,13,-1,15,17,19,21,23,25,27,29,31,33,-1,35,37,39,41,43,-1,45,47,49,51,-1,-1,-1,-1,-1,-1,-1,-1,-1,-1,-1,-1,-1,-1,-1,-1,-1,-1,-1,-1,-1,-1,-1,-1],"loss_changes":[3.364895E3,5.651157E2,7.8747925E1,2.3923584E1,1.1128152E2,8.698132E1,1.0494626E2,0E0,1.16188965E1,6.616625E1,1.3322905E2,3.326306E1,1.67241E1,1.2147325E2,3.374765E1,1.1021484E1,1.0414835E1,1.0037899E1,0E0,3.5242752E1,2.5282E2,9.0616455E0,3.339891E1,1.8913239E1,0E0,1.1817566E1,6.536096E1,2.2696716E1,2.0141087E1,0E0,0E0,0E0,0E0,0E0,0E0,0E0,0E0,0E0,0E0,0E0,0E0,0E0,0E0,0E0,0E0,0E0,0E0,0E0,0E0,0E0,0E0,0E0,0E0],"parents":[2147483647,0,0,1,1,2,2,3,3,4,4,5,5,6,6,8,8,9,9,10,10,11,11,12,12,13,13,14,14,15,15,16,16,17,17,19,19,20,20,21,21,22,22,23,23,25,25,26,26,27,27,28,28],"right_children":[2,4,6,8,10,12,14,-1,16,18,20,22,24,26,28,30,32,34,-1,36,38,40,42,44,-1,46,48,50,52,-1,-1,-1,-1,-1,-1,-1,-1,-1,-1,-1,-1,-1,-1,-1,-1,-1,-1,-1,-1,-1,-1,-1,-1],"split_conditions":[2.49E1,2.11E1,1.766E2,9.57E0,1.913E1,3.71292E3,2.347E2,3.583223E-2,3.528E2,1.782E1,6.343E1,1.3E-1,1.24E2,3.613E1,2.28676E3,5.31E1,1.68E1,2.19E1,4.8056796E-2,1.993E1,9.635E1,2.66E1,8.158E1,2.98E1,3.772833E-2,2.6E1,9E-2,2.52E1,2.53334E3,-2.0359213E-2,-4.4048123E-2,3.5725694E-2,-3.6640354E-2,3.3648215E-2,-6.9379015E-3,-4.2254824E-2,-1.8910488E-2,4.236744E-2,-1.8491073E-2,2.9863253E-2,4.0053606E-2,-4.5917522E-2,2.7523227E-2,-4.9322356E-2,2.9420307E-2,-4.744057E-3,-5.1454227E-2,3.3928547E-2,-3.21404E-2,-3.95611E-2,3.801271E-2,-4.7684595E-2,4.0722836E-2],"split_indices":[1,1,5,2,2,2,5,0,5,2,2,4,5,2,2,5,1,1,0,2,2,1,2,1,0,1,4,1,2,0,0,0,0,0,0,0,0,0,0,0,0,0,0,0,0,0,0,0,0,0,0,0,0],"split_type":[0,0,0,0,0,0,0,0,0,0,0,0,0,0,0,0,0,0,0,0,0,0,0,0,0,0,0,0,0,0,0,0,0,0,0,0,0,0,0,0,0,0,0,0,0,0,0,0,0,0,0,0,0],"sum_hessian":[3.0711467E3,1.6189218E3,1.4522249E3,9.997357E2,6.191861E2,1.1478881E3,3.0433676E2,2.744461E0,9.969913E2,9.4552925E1,5.246332E2,1.1287281E3,1.9159918E1,1.1587338E2,1.8846336E2,9.918177E2,5.173565E0,4.7602856E1,4.695007E1,2.5619772E2,2.6843546E2,1.1060295E3,2.2698544E1,1.6705374E1,2.4545445E0,3.925718E1,7.66162E1,1.7956873E2,8.894636E0,2.0523085E1,9.712946E2,2.7393851E0,2.4341795E0,5.28201E0,4.2320847E1,9.228193E1,1.6391579E2,9.33612E1,1.7507425E2,1.0181982E2,1.0042098E3,7.498086E0,1.5200458E1,1.4049307E1,2.6560662E0,5.932787E0,3.332439E1,6.019184E1,1.6424364E1,2.6913726E0,1.7687735E2,6.4044733E0,2.490163E0],"tree_param":{"num_deleted":"0","num_feature":"6","num_nodes":"53","size_leaf_vector":"1"}},{"base_weights":[-7.64696E-3,-1.3638035E0,7.238321E-1,-1.433289E0,-9.057036E-1,-1.0875622E-1,1.0898939E0,2.7596885E-2,-1.4426681E0,4.943377E-1,-1.4212207E0,-3.616963E-1,1.2336881E0,4.973936E-1,1.258566E0,-1.4606934E0,-3.97215E-1,8.2220536E-1,-3.9673913E-2,-4.4883415E-2,2.5977256E-2,-7.423889E-1,3.0192226E-2,1.4285386E0,-4.4362757E-2,6.7796946E-1,-4.0923005E-1,-1.0286617E0,1.289263E0,-4.407951E-2,-2.6933358E-3,-4.1669946E-2,4.177808E-2,3.7100736E-2,-1.4584844E-2,1.4672968E-2,-2.9100288E-2,1.1675614E-2,-1.2437126E-2,-3.660533E-2,4.4867102E-2,2.282983E-2,-5.265277E-2,-3.2522134E-2,2.698057E-2,3.290818E-2,-4.5636736E-2,3.9546054E-2,1.9889425E-2],"categories":[],"categories_nodes":[],"categories_segments":[],"categories_sizes":[],"default_left":[1,0,0,0,0,0,0,0,1,0,1,0,0,0,0,1,0,0,0,0,0,0,1,0,0,0,0,0,0,0,0,0,0,0,0,0,0,0,0,0,0,0,0,0,0,0,0,0,0],"id":18,"left_children":[1,3,5,7,9,11,13,-1,15,17,19,21,23,25,27,29,31,33,-1,-1,-1,35,37,39,-1,41,43,45,47,-1,-1,-1,-1,-1,-1,-1,-1,-1,-1,-1,-1,-1,-1,-1,-1,-1,-1,-1,-1],"loss_changes":[2.977836E3,3.218225E1,5.9445233E2,2.14458E1,1.0264525E2,2.0297383E2,1.3475085E2,0E0,1.6536743E1,2.417186E1,1.9022507E1,7.5013E1,5.2211014E1,4.969091E1,7.531323E1,1.0420288E1,3.1701357E1,1.8738964E1,0E0,0E0,0E0,7.195647E1,3.986211E1,1.7616943E1,0E0,5.2255432E1,4.5795853E1,1.686235E1,1.7979614E1,0E0,0E0,0E0,0E0,0E0,0E0,0E0,0E0,0E0,0E0,0E0,0E0,0E0,0E0,0E0,0E0,0E0,0E0,0E0,0E0],"parents":[2147483647,0,0,1,1,2,2,3,3,4,4,5,5,6,6,8,8,9,9,10,10,11,11,12,12,13,13,14,14,15,15,16,16,17,17,21,21,22,22,23,23,25,25,26,26,27,27,28,28],"right_children":[2,4,6,8,10,12,14,-1,16,18,20,22,24,26,28,30,32,34,-1,-1,-1,36,38,40,-1,42,44,46,48,-1,-1,-1,-1,-1,-1,-1,-1,-1,-1,-1,-1,-1,-1,-1,-1,-1,-1,-1,-1],"split_conditions":[2.17E1,2.05E1,2.52E1,1.51E1,2.1E2,9.36946E4,6.8E-1,2.7596885E-2,5.1E-1,5.70218E4,3.42E2,2.1E-1,1.77548E5,4.55771E4,2.73619E2,3.528E2,1.63E1,2.15E1,-3.9673913E-2,-4.4883415E-2,2.5977256E-2,2.21E1,2.6E-1,5.31E1,-4.4362757E-2,4.9E-1,8.36947E4,1.80831E2,8.36947E4,-4.407951E-2,-2.6933358E-3,-4.1669946E-2,4.177808E-2,3.7100736E-2,-1.4584844E-2,1.4672968E-2,-2.9100288E-2,1.1675614E-2,-1.2437126E-2,-3.660533E-2,4.4867102E-2,2.282983E-2,-5.265277E-2,-3.2522134E-2,2.698057E-2,3.290818E-2,-4.5636736E-2,3.9546054E-2,1.9889425E-2],"split_indices":[1,1,1,5,5,0,3,0,3,0,5,3,0,0,0,5,1,1,0,0,0,1,3,5,0,3,0,0,0,0,0,0,0,0,0,0,0,0,0,0,0,0,0,0,0,0,0,0,0],"split_type":[0,0,0,0,0,0,0,0,0,0,0,0,0,0,0,0,0,0,0,0,0,0,0,0,0,0,0,0,0,0,0,0,0,0,0,0,0,0,0,0,0,0,0,0,0,0,0,0,0],"sum_hessian":[2.9998552E3,1.0508055E3,1.9490498E3,9.1056085E2,1.4024469E2,5.954448E2,1.353605E3,3.2293901E0,9.073315E2,3.7753857E1,1.02490845E2,5.0165482E2,9.379001E1,3.008273E2,1.0527777E3,8.915624E2,1.576911E1,3.2445965E1,5.307892E0,9.957603E1,2.9148142E0,2.5400864E2,2.476462E2,8.794571E1,5.8442993E0,2.5107242E2,4.975489E1,1.3511724E1,1.0392659E3,8.859178E2,5.644535E0,1.0290711E1,5.478399E0,2.4681679E1,7.7642837E0,3.944611E1,2.1456252E2,1.3710527E2,1.1054092E2,1.7461058E0,8.61996E1,2.4345218E2,7.620246E0,3.2939453E1,1.6815437E1,2.3111603E0,1.1200563E1,9.923092E2,4.6956726E1],"tree_param":{"num_deleted":"0","num_feature":"6","num_nodes":"49","size_leaf_vector":"1"}},{"base_weights":[1.8473456E-2,6.366012E-1,-5.7812667E-1,8.6602134E-1,2.2426388E-1,-2.1679183E-2,-9.596059E-1,7.722909E-2,1.0346133E0,1.1772236E0,5.9677684E-3,-2.8821623E-1,9.370384E-1,-1.0288987E0,1.1996716E0,3.496853E-1,-8.9892465E-1,1.0855705E0,-1.1527346E0,1.240207E0,-3.412758E-2,-4.694672E-1,4.8589477E-1,4.469282E-1,-8.85811E-1,-4.547386E-2,1.068332E0,-5.628297E-1,-1.3020039E0,8.786811E-3,4.090277E-2,1.6065415E-2,-2.4868082E-2,4.9135916E-2,-4.0400654E-2,3.9060853E-2,2.5955958E-2,-4.7870755E-2,3.672079E-2,8.41008E-3,3.8417384E-2,-3.1762335E-2,-6.711119E-3,2.983323E-2,-3.3278342E-3,3.8783506E-2,2.0347347E-3,-3.37952E-2,-2.5142188E-4,4.1201122E-2,-4.012583E-3,-9.583874E-3,-3.3655286E-2,2.3832371E-2,-3.949294E-2],"categories":[],"categories_nodes":[],"categories_segments":[],"categories_sizes":[],"default_left":[1,0,0,0,0,1,0,0,0,1,1,0,0,0,0,0,0,0,0,0,0,1,0,0,1,0,0,0,0,0,0,0,0,0,0,0,0,0,0,0,0,0,0,0,0,0,0,0,0,0,0,0,0,0,0],"id":19,"left_children":[1,3,5,7,9,11,13,15,17,19,21,23,25,27,29,31,33,35,37,39,-1,41,43,45,47,-1,49,51,53,-1,-1,-1,-1,-1,-1,-1,-1,-1,-1,-1,-1,-1,-1,-1,-1,-1,-1,-1,-1,-1,-1,-1,-1,-1,-1],"loss_changes":[1.1079138E3,1.3938757E2,3.2450058E2,1.2594769E2,1.10003784E2,1.5942221E2,1.3693726E2,4.4986294E1,8.827173E1,1.5779877E1,9.863311E1,2.1482756E2,4.53273E1,1.1119055E2,3.8566399E0,2.9362194E1,4.415541E1,3.5291748E1,2.1176247E1,3.3777008E0,0E0,3.1212612E1,6.539975E1,7.030737E1,5.6922836E1,0E0,4.7636948E1,4.4079765E1,1.779181E1,0E0,0E0,0E0,0E0,0E0,0E0,0E0,0E0,0E0,0E0,0E0,0E0,0E0,0E0,0E0,0E0,0E0,0E0,0E0,0E0,0E0,0E0,0E0,0E0,0E0,0E0],"parents":[2147483647,0,0,1,1,2,2,3,3,4,4,5,5,6,6,7,7,8,8,9,9,10,10,11,11,12,12,13,13,14,14,15,15,16,16,17,17,18,18,19,19,21,21,22,22,23,23,24,24,26,26,27,27,28,28],"right_children":[2,4,6,8,10,12,14,16,18,20,22,24,26,28,30,32,34,36,38,40,-1,42,44,46,48,-1,50,52,54,-1,-1,-1,-1,-1,-1,-1,-1,-1,-1,-1,-1,-1,-1,-1,-1,-1,-1,-1,-1,-1,-1,-1,-1,-1,-1],"split_conditions":[1.608E2,1E-1,6E-2,2.4E-1,1.896E1,2.2E-1,3.528E2,1.326E2,3.69975E3,1.3E-1,4.8502E2,4.906E1,5.109E1,2.508E2,1.611E1,8E-2,1.828E1,4.906E1,1.559E2,2.5E-1,-3.412758E-2,4.737E1,1.05441E3,1.828E1,9.0234E2,-4.547386E-2,2.552E2,1.1E-1,1.782E1,8.786811E-3,4.090277E-2,1.6065415E-2,-2.4868082E-2,4.9135916E-2,-4.0400654E-2,3.9060853E-2,2.5955958E-2,-4.7870755E-2,3.672079E-2,8.41008E-3,3.8417384E-2,-3.1762335E-2,-6.711119E-3,2.983323E-2,-3.3278342E-3,3.8783506E-2,2.0347347E-3,-3.37952E-2,-2.5142188E-4,4.1201122E-2,-4.012583E-3,-9.583874E-3,-3.3655286E-2,2.3832371E-2,-3.949294E-2],"split_indices":[5,4,4,3,2,3,5,5,2,4,2,2,2,5,2,4,2,2,5,3,0,2,2,2,2,0,5,4,2,0,0,0,0,0,0,0,0,0,0,0,0,0,0,0,0,0,0,0,0,0,0,0,0,0,0],"split_type":[0,0,0,0,0,0,0,0,0,0,0,0,0,0,0,0,0,0,0,0,0,0,0,0,0,0,0,0,0,0,0,0,0,0,0,0,0,0,0,0,0,0,0,0,0,0,0,0,0,0,0,0,0,0,0],"sum_hessian":[3.0023096E3,1.4745181E3,1.5277914E3,9.466897E2,5.278284E2,6.218224E2,9.0596906E2,1.6696545E2,7.7972424E2,9.755679E1,4.302716E2,4.8710083E2,1.3472154E2,8.7830707E2,2.7662037E1,1.3103404E2,3.5931404E1,7.6246533E2,1.7258938E1,9.542463E1,2.132165E0,2.1615831E2,2.1411331E2,2.1852704E2,2.685738E2,6.3091183E0,1.2841243E2,3.25642E2,5.5266504E2,4.65789E0,2.3004148E1,1.1365946E2,1.7374586E1,4.9919324E0,3.0939472E1,3.8217236E2,3.8029297E2,1.4824687E1,2.4342515E0,4.1722293E0,9.1252396E1,6.26446E1,1.535137E2,1.15246635E2,9.886667E1,6.688447E1,1.5164258E2,2.1053593E2,5.803785E1,1.0230836E2,2.610407E1,2.279675E2,9.767451E1,3.4078841E0,5.4925714E2],"tree_param":{"num_deleted":"0","num_feature":"6","num_nodes":"55","size_leaf_vector":"1"}},{"base_weights":[3.3115402E-2,-1.2191215E0,8.031167E-1,-1.364516E0,-4.597432E-1,-3.1414416E-2,1.063842E0,-1.3812401E0,6.907344E-1,1.519796E-1,-1.3920059E0,-3.580157E-1,1.2209262E0,1.191527E0,5.726228E-1,-2.866807E-1,-1.4061606E0,4.0357605E-2,1.883038E-1,6.61111E-1,-7.8480154E-1,-4.484475E-2,2.500949E-2,6.91761E-1,-5.954133E-1,1.4508827E0,-4.406387E-2,1.2776805E0,6.469707E-1,-2.5927937E-1,1.0781456E0,-4.248754E-2,1.7986685E-2,-1.7685154E-2,-4.2429857E-2,-3.189596E-2,2.8226169E-2,-1.7039217E-2,3.4732603E-2,3.9871223E-2,-3.521998E-2,-4.3769177E-2,3.9924245E-2,-3.666048E-2,-4.990774E-3,-3.2004375E-2,4.5029707E-2,7.276102E-3,3.9169814E-2,-1.2040389E-2,3.577661E-2,7.83664E-3,-4.108257E-2,4.549205E-3,3.676922E-2],"categories":[],"categories_nodes":[],"categories_segments":[],"categories_sizes":[],"default_left":[1,1,0,1,0,0,1,0,0,0,1,0,0,0,0,0,0,0,0,0,0,0,0,0,0,0,0,0,0,0,0,0,0,0,0,0,0,0,0,0,0,0,0,0,0,0,0,0,0,0,0,0,0,0,0],"id":20,"left_children":[1,3,5,7,9,11,13,15,17,19,21,23,25,27,29,31,33,-1,35,37,39,-1,-1,41,43,45,-1,47,49,51,53,-1,-1,-1,-1,-1,-1,-1,-1,-1,-1,-1,-1,-1,-1,-1,-1,-1,-1,-1,-1,-1,-1,-1,-1],"loss_changes":[2.8943894E3,1.2556958E2,4.044724E2,3.39104E1,1.0581918E2,1.818162E2,8.815137E1,2.5547974E1,2.5109015E0,5.4278088E1,1.8058472E1,8.825956E1,5.900638E1,5.1868652E1,1.23972275E2,2.330799E1,5.369629E0,0E0,6.574246E0,4.5565502E1,3.4588913E1,0E0,0E0,9.193169E1,7.723078E1,1.2351578E1,0E0,2.7741577E1,8.938856E1,6.5062935E1,2.4841736E1,0E0,0E0,0E0,0E0,0E0,0E0,0E0,0E0,0E0,0E0,0E0,0E0,0E0,0E0,0E0,0E0,0E0,0E0,0E0,0E0,0E0,0E0,0E0,0E0],"parents":[2147483647,0,0,1,1,2,2,3,3,4,4,5,5,6,6,7,7,8,8,9,9,10,10,11,11,12,12,13,13,14,14,15,15,16,16,18,18,19,19,20,20,23,23,24,24,25,25,27,27,28,28,29,29,30,30],"right_children":[2,4,6,8,10,12,14,16,18,20,22,24,26,28,30,32,34,-1,36,38,40,-1,-1,42,44,46,-1,48,50,52,54,-1,-1,-1,-1,-1,-1,-1,-1,-1,-1,-1,-1,-1,-1,-1,-1,-1,-1,-1,-1,-1,-1,-1,-1],"split_conditions":[2.31E1,2.11E1,2.49E1,3.528E2,2.343E2,9.36946E4,1.766E2,5.31E1,7.89633E3,8E-2,3.42E2,2.34E1,1.77548E5,1.79629E4,2.347E2,1.37E1,1E-2,4.0357605E-2,8.40685E3,2.14683E4,3.72881E3,-4.484475E-2,2.500949E-2,4.42841E4,7E-2,5.31E1,-4.406387E-2,2.73619E2,2.83E1,9E-2,4.65568E3,-4.248754E-2,1.7986685E-2,-1.7685154E-2,-4.2429857E-2,-3.189596E-2,2.8226169E-2,-1.7039217E-2,3.4732603E-2,3.9871223E-2,-3.521998E-2,-4.3769177E-2,3.9924245E-2,-3.666048E-2,-4.990774E-3,-3.2004375E-2,4.5029707E-2,7.276102E-3,3.9169814E-2,-1.2040389E-2,3.577661E-2,7.83664E-3,-4.108257E-2,4.549205E-3,3.676922E-2],"split_indices":[1,1,1,5,5,0,5,5,0,4,5,1,0,0,5,1,4,0,0,0,0,0,0,0,4,5,0,0,1,4,0,0,0,0,0,0,0,0,0,0,0,0,0,0,0,0,0,0,0,0,0,0,0,0,0],"split_type":[0,0,0,0,0,0,0,0,0,0,0,0,0,0,0,0,0,0,0,0,0,0,0,0,0,0,0,0,0,0,0,0,0,0,0,0,0,0,0,0,0,0,0,0,0,0,0,0,0,0,0,0,0,0,0],"sum_hessian":[2.9997659E3,1.1419894E3,1.8577765E3,9.5780585E2,1.8418352E2,4.4245224E2,1.4153242E3,9.5040015E2,7.405699E0,1.1171589E2,7.2467636E1,3.514982E2,9.095404E1,1.1221997E3,2.9312448E2,2.1434925E1,9.289653E2,2.4875987E0,4.9181E0,7.2569405E1,3.9146484E1,6.958153E1,2.8861074E0,6.447494E1,2.870233E2,8.421473E1,6.739317E0,9.6774756E2,1.5445216E2,1.10979965E2,1.8214453E2,9.160799E0,1.2274127E1,9.923977E0,9.1904126E2,1.6918447E0,3.2262554E0,2.0843222E1,5.172618E1,5.7114077E0,3.3435078E1,1.4475186E1,4.9999752E1,1.1590468E2,1.7111859E2,1.2474035E0,8.296732E1,2.5724308E1,9.4202325E2,5.295861E1,1.0149356E2,7.6075745E1,3.4904224E1,2.5292866E1,1.5685167E2],"tree_param":{"num_deleted":"0","num_feature":"6","num_nodes":"55","size_leaf_vector":"1"}},{"base_weights":[2.2356244E-2,-6.621762E-1,3.395482E-1,6.31852E-1,-8.0258375E-1,5.6421274E-1,-5.8569574E-1,1.2320926E0,-6.841672E-1,-8.8058364E-1,1.2205557E0,7.4962276E-1,4.1875385E-2,-2.194551E-1,-9.700943E-1,1.3846252E0,1.4084497E-1,-1.0015597E-2,-4.2296294E-2,-4.097594E-1,-1.1059332E0,4.0483244E-2,-3.126092E-2,2.0873797E-1,1.0647153E0,9.415211E-1,-2.4761692E-1,2.7940452E-1,-7.3829293E-1,-1.3518398E0,-1.4493406E-2,-5.6189126E-3,4.5772463E-2,-3.1757433E-2,2.163393E-2,-1.1972581E-2,4.4902362E-2,-4.579056E-3,-3.394104E-2,-3.6070623E-2,-1.622994E-2,4.3266103E-2,2.7938446E-3,5.8357273E-3,3.3852793E-2,-2.1294037E-2,4.2674642E-2,-1.9153887E-2,1.4598162E-2,1.2395671E-2,-4.135305E-2,-3.0606909E-2,3.772967E-2,-4.188478E-2,-2.3785602E-2,-3.3336315E-2,2.1555372E-2],"categories":[],"categories_nodes":[],"categories_segments":[],"categories_sizes":[],"default_left":[0,0,1,0,0,0,0,0,0,0,0,0,0,1,0,0,0,0,0,0,0,0,0,0,0,0,1,0,0,0,1,0,0,0,0,0,0,0,0,0,0,0,0,0,0,0,0,0,0,0,0,0,0,0,0,0,0],"id":21,"left_children":[1,3,5,7,9,11,13,15,17,19,21,23,25,27,29,31,33,35,-1,37,39,-1,-1,41,43,45,47,49,51,53,55,-1,-1,-1,-1,-1,-1,-1,-1,-1,-1,-1,-1,-1,-1,-1,-1,-1,-1,-1,-1,-1,-1,-1,-1,-1,-1],"loss_changes":[6.279064E2,1.6688367E2,4.1110632E2,7.2088455E1,1.3150311E2,1.540076E2,5.421048E1,1.017453E1,1.4122132E1,8.404651E1,1.0475872E1,1.9982843E2,1.09029E2,5.1779408E1,6.867917E1,1.2385712E1,6.8557143E0,9.969174E0,0E0,4.795461E1,2.865686E1,0E0,0E0,6.165922E1,4.088861E1,8.194609E1,9.1231415E1,2.3261162E1,5.6401173E1,2.2264862E0,4.4825638E1,0E0,0E0,0E0,0E0,0E0,0E0,0E0,0E0,0E0,0E0,0E0,0E0,0E0,0E0,0E0,0E0,0E0,0E0,0E0,0E0,0E0,0E0,0E0,0E0,0E0,0E0],"parents":[2147483647,0,0,1,1,2,2,3,3,4,4,5,5,6,6,7,7,8,8,9,9,10,10,11,11,12,12,13,13,14,14,15,15,16,16,17,17,19,19,20,20,23,23,24,24,25,25,26,26,27,27,28,28,29,29,30,30],"right_children":[2,4,6,8,10,12,14,16,18,20,22,24,26,28,30,32,34,36,-1,38,40,-1,-1,42,44,46,48,50,52,54,56,-1,-1,-1,-1,-1,-1,-1,-1,-1,-1,-1,-1,-1,-1,-1,-1,-1,-1,-1,-1,-1,-1,-1,-1,-1,-1],"split_conditions":[2.2E-1,1.913E1,1E-1,7E-2,2.53334E3,2.3207E4,1.4E-1,4.98824E4,2.3474E4,5E-2,3.69975E3,5.1556E3,2.6E-1,2.4E-1,2.3474E4,8.40685E3,8E-2,2.32569E4,-4.2296294E-2,3.8547E2,1.8E-1,4.0483244E-2,-3.126092E-2,9.57E0,4.7E-1,7.785E1,6.4357E2,3.65517E3,2.3131E3,1.55071E4,4.8E-1,-5.6189126E-3,4.5772463E-2,-3.1757433E-2,2.163393E-2,-1.1972581E-2,4.4902362E-2,-4.579056E-3,-3.394104E-2,-3.6070623E-2,-1.622994E-2,4.3266103E-2,2.7938446E-3,5.8357273E-3,3.3852793E-2,-2.1294037E-2,4.2674642E-2,-1.9153887E-2,1.4598162E-2,1.2395671E-2,-4.135305E-2,-3.0606909E-2,3.772967E-2,-4.188478E-2,-2.3785602E-2,-3.3336315E-2,2.1555372E-2],"split_indices":[3,2,4,4,2,0,4,0,0,4,2,0,3,3,0,0,3,0,0,2,3,0,0,2,3,2,2,2,2,0,3,0,0,0,0,0,0,0,0,0,0,0,0,0,0,0,0,0,0,0,0,0,0,0,0,0,0],"split_type":[0,0,0,0,0,0,0,0,0,0,0,0,0,0,0,0,0,0,0,0,0,0,0,0,0,0,0,0,0,0,0,0,0,0,0,0,0,0,0,0,0,0,0,0,0,0,0,0,0,0,0,0,0,0,0,0,0],"sum_hessian":[2.8898337E3,9.147097E2,1.975124E3,8.9192375E1,8.2551733E2,1.5895461E3,3.8557785E2,6.129795E1,2.7894423E1,7.954157E2,3.0101625E1,1.1728082E3,4.1673782E2,1.9825694E2,1.873209E2,5.354472E1,7.7532315E0,1.4986465E1,1.2907958E1,2.5838614E2,5.370296E2,2.8861164E1,1.2404611E0,4.323326E2,7.4047565E2,1.0090533E2,3.158325E2,1.01309715E2,9.6947235E1,1.3355388E2,5.376703E1,4.3841496E0,4.9160572E1,2.2592402E0,5.4939914E0,1.2495149E1,2.4913163E0,1.913984E2,6.698772E1,4.5777075E2,7.925885E1,3.6065666E1,3.9626694E2,5.0792057E1,6.896836E2,2.2653257E1,7.8252075E1,2.0619817E2,1.0963433E2,9.44394E1,6.870314E0,8.5376274E1,1.1570959E1,1.2235518E2,1.1198703E1,2.1332924E1,3.243411E1],"tree_param":{"num_deleted":"0","num_feature":"6","num_nodes":"57","size_leaf_vector":"1"}},{"base_weights":[-3.421644E-2,-8.97025E-1,1.009171E0,-1.3458326E0,-2.1516535E-1,4.571065E-1,1.1795002E0,-1.3621808E0,-3.175755E-1,-4.3149534E-1,1.1064218E0,-7.368843E-2,9.338389E-1,1.2070844E0,-4.3509748E-2,-1.3937964E0,-9.947039E-1,3.677649E-2,-3.995707E-2,7.1326447E-1,-6.8614507E-1,4.32521E-2,-8.534697E-1,8.5979164E-1,-7.562421E-1,9.901892E-1,-4.1383747E-2,1.2626818E0,8.2733715E-1,-4.3637246E-2,-3.8696986E-2,3.9119933E-2,-3.5730843E-2,-2.4205912E-3,4.5234814E-2,-3.230754E-2,-5.6201336E-3,-4.507701E-2,3.0942142E-2,4.1033186E-2,-4.3090366E-2,4.601984E-2,-2.7433204E-2,3.0938193E-2,-4.5333628E-2,3.861224E-2,8.720811E-3,-5.1293883E-2,2.9560478E-2],"categories":[],"categories_nodes":[],"categories_segments":[],"categories_sizes":[],"default_left":[1,1,0,1,0,0,1,0,0,1,0,0,0,0,0,1,0,0,0,0,0,0,0,0,0,0,0,1,0,0,0,0,0,0,0,0,0,0,0,0,0,0,0,0,0,0,0,0,0],"id":22,"left_children":[1,3,5,7,9,11,13,15,17,19,21,23,25,27,-1,29,31,-1,-1,33,35,-1,37,39,41,43,-1,45,47,-1,-1,-1,-1,-1,-1,-1,-1,-1,-1,-1,-1,-1,-1,-1,-1,-1,-1,-1,-1],"loss_changes":[2.5378433E3,4.719171E2,1.19448364E2,1.5206909E1,1.759293E2,7.66151E1,7.2443726E1,9.249634E0,2.6469307E1,1.5443172E2,5.8145042E1,9.243814E1,2.214946E1,1.932837E1,0E0,3.4310303E0,3.585853E1,0E0,0E0,6.1051624E1,8.4100494E1,0E0,1.779795E1,7.348056E1,3.1744991E1,1.7612976E1,0E0,1.9537598E1,5.2251358E1,0E0,0E0,0E0,0E0,0E0,0E0,0E0,0E0,0E0,0E0,0E0,0E0,0E0,0E0,0E0,0E0,0E0,0E0,0E0,0E0],"parents":[2147483647,0,0,1,1,2,2,3,3,4,4,5,5,6,6,7,7,8,8,9,9,10,10,11,11,12,12,13,13,15,15,16,16,19,19,20,20,22,22,23,23,24,24,25,25,27,27,28,28],"right_children":[2,4,6,8,10,12,14,16,18,20,22,24,26,28,-1,30,32,-1,-1,34,36,-1,38,40,42,44,-1,46,48,-1,-1,-1,-1,-1,-1,-1,-1,-1,-1,-1,-1,-1,-1,-1,-1,-1,-1,-1,-1],"split_conditions":[2.49E1,2.11E1,6.8E-1,5.1E-1,9.36946E4,5.109E1,4.83329E3,2.05E1,5.2E-1,1.913E1,3.8E-1,1E-1,3.69975E3,1.79629E4,-4.3509748E-2,8E-2,1.828E1,3.677649E-2,-3.995707E-2,1.782E1,2.1E-1,4.32521E-2,2.43E1,2.80106E4,3.24901E3,5.8E-1,-4.1383747E-2,1.24529E3,3.76001E0,-4.3637246E-2,-3.8696986E-2,3.9119933E-2,-3.5730843E-2,-2.4205912E-3,4.5234814E-2,-3.230754E-2,-5.6201336E-3,-4.507701E-2,3.0942142E-2,4.1033186E-2,-4.3090366E-2,4.601984E-2,-2.7433204E-2,3.0938193E-2,-4.5333628E-2,3.861224E-2,8.720811E-3,-5.1293883E-2,2.9560478E-2],"split_indices":[1,1,3,3,0,2,2,1,3,2,3,3,2,0,0,3,2,0,0,2,3,0,1,0,0,3,0,2,3,0,0,0,0,0,0,0,0,0,0,0,0,0,0,0,0,0,0,0,0],"split_type":[0,0,0,0,0,0,0,0,0,0,0,0,0,0,0,0,0,0,0,0,0,0,0,0,0,0,0,0,0,0,0,0,0,0,0,0,0,0,0,0,0,0,0,0,0,0,0,0,0],"sum_hessian":[2.8170571E3,1.542039E3,1.2750182E3,9.2935394E2,6.1268494E2,3.014981E2,9.7352014E2,9.1448975E2,1.4864208E1,5.270808E2,8.560412E1,1.430601E2,1.5843802E2,9.639503E2,9.56983E0,8.394736E2,7.5016205E1,5.811906E0,9.052302E0,9.558487E1,4.3149594E2,7.332366E1,1.2280454E1,6.0313686E1,8.2746414E1,1.5522871E2,3.2093055E0,8.388169E2,1.25133385E2,5.2143787E2,3.180357E2,5.4587917E0,6.955741E1,4.826024E1,4.7324627E1,2.4129945E2,1.9019649E2,9.285589E0,2.9948642E0,4.971861E1,1.0595081E1,4.784496E0,7.7961914E1,1.5329851E2,1.9302115E0,8.179652E2,2.085168E1,6.7606044E0,1.1837278E2],"tree_param":{"num_deleted":"0","num_feature":"6","num_nodes":"49","size_leaf_vector":"1"}},{"base_weights":[1.1829255E-3,-1.3105338E0,6.8348503E-1,-3.115072E-1,-1.3709129E0,-4.2200286E-2,1.018413E0,-8.9489675E-1,4.7175273E-2,-4.2909265E-2,-1.1745384E0,-2.5090805E-1,1.1686404E0,4.7357306E-1,1.171013E0,4.3336567E-2,-1.0702797E0,2.4146318E-1,-1.2933146E0,6.720722E-1,-4.5057356E-1,1.3627768E0,-4.1507456E-2,1.330197E-2,8.793014E-1,1.1997521E0,-4.307284E-2,-3.785459E-2,4.1304518E-2,-3.5410427E-2,2.9785134E-2,-4.1179925E-2,7.919008E-3,1.3602569E-3,4.351097E-2,-4.2711068E-2,-5.4601943E-3,4.274251E-2,7.2489176E-3,1.4926257E-2,-4.0824406E-2,2.7978484E-2,-3.9841477E-2,3.755183E-2,2.6585937E-2],"categories":[],"categories_nodes":[],"categories_segments":[],"categories_sizes":[],"default_left":[1,0,0,0,1,0,0,0,0,0,0,1,0,0,1,0,0,0,0,0,0,0,0,0,0,0,0,0,0,0,0,0,0,0,0,0,0,0,0,0,0,0,0,0,0],"id":23,"left_children":[1,3,5,7,9,11,13,15,-1,-1,17,19,21,23,25,-1,27,29,31,33,35,37,-1,39,41,43,-1,-1,-1,-1,-1,-1,-1,-1,-1,-1,-1,-1,-1,-1,-1,-1,-1,-1,-1],"loss_changes":[2.5488184E3,5.8353638E1,4.553794E2,6.3872757E1,9.03479E0,1.500398E2,1.0602197E2,1.9612572E1,0E0,0E0,3.7132202E1,9.360039E1,4.5139442E1,5.2678078E1,7.669141E1,0E0,2.1205952E1,2.017184E1,2.5340271E1,4.4049694E1,1.0867699E2,5.3274994E0,0E0,8.931141E1,1.8884613E1,1.50303955E1,0E0,0E0,0E0,0E0,0E0,0E0,0E0,0E0,0E0,0E0,0E0,0E0,0E0,0E0,0E0,0E0,0E0,0E0,0E0],"parents":[2147483647,0,0,1,1,2,2,3,3,4,4,5,5,6,6,7,7,10,10,11,11,12,12,13,13,14,14,16,16,17,17,18,18,19,19,20,20,21,21,23,23,24,24,25,25],"right_children":[2,4,6,8,10,12,14,16,-1,-1,18,20,22,24,26,-1,28,30,32,34,36,38,-1,40,42,44,-1,-1,-1,-1,-1,-1,-1,-1,-1,-1,-1,-1,-1,-1,-1,-1,-1,-1,-1],"split_conditions":[2.17E1,2.523E1,2.52E1,2.06E1,1.5E-1,9.36946E4,6.8E-1,9.57E0,4.7175273E-2,-4.2909265E-2,1.6E-1,1.913E1,1.77548E5,5.109E1,4.83329E3,4.3336567E-2,6.29972E4,1.67E1,1.27295E5,1.782E1,1.993E1,3.8E-1,-4.1507456E-2,2.1E-1,3.69975E3,1.79629E4,-4.307284E-2,-3.785459E-2,4.1304518E-2,-3.5410427E-2,2.9785134E-2,-4.1179925E-2,7.919008E-3,1.3602569E-3,4.351097E-2,-4.2711068E-2,-5.4601943E-3,4.274251E-2,7.2489176E-3,1.4926257E-2,-4.0824406E-2,2.7978484E-2,-3.9841477E-2,3.755183E-2,2.6585937E-2],"split_indices":[1,2,1,1,3,0,3,2,0,0,3,2,0,2,2,0,0,1,0,2,2,3,0,3,2,0,0,0,0,0,0,0,0,0,0,0,0,0,0,0,0,0,0,0,0],"split_type":[0,0,0,0,0,0,0,0,0,0,0,0,0,0,0,0,0,0,0,0,0,0,0,0,0,0,0,0,0,0,0,0,0,0,0,0,0,0,0,0,0,0,0,0,0],"sum_hessian":[2.845882E3,9.7347284E2,1.8724093E3,5.5832546E1,9.1764026E2,5.915586E2,1.2808507E3,4.3032463E1,1.2800084E1,6.997184E2,2.179219E2,5.0526147E2,8.629712E1,2.8114822E2,9.9970245E2,2.4963858E0,4.0536076E1,1.6785007E1,2.011369E2,8.944129E1,4.158202E2,8.062999E1,5.667131E0,1.3220427E2,1.4894394E2,9.89335E2,1.0367424E1,3.8042744E1,2.4933336E0,5.605991E0,1.1179017E1,1.914979E2,9.63901E0,5.0130974E1,3.9310314E1,8.90077E1,3.2681247E2,7.6149864E1,4.4801273E0,9.822691E1,3.397736E1,1.4599518E2,2.9487658E0,8.460922E2,1.4324283E2],"tree_param":{"num_deleted":"0","num_feature":"6","num_nodes":"45","size_leaf_vector":"1"}},{"base_weights":[4.778755E-3,-1.1496426E0,7.423863E-1,-1.3114179E0,-3.8635463E-1,-2.7355831E-2,1.0063236E0,-1.3287252E0,5.522129E-1,1.6549915E-1,-1.2351907E0,-3.9981726E-1,8.405332E-1,1.1328456E0,5.321301E-1,-3.689479E-1,-1.353975E0,4.0448666E-2,4.5019526E-2,9.1070163E-1,-7.251646E-1,-1.3233519E0,2.3705056E-2,1.2542508E0,-4.6781734E-1,1.2373432E0,-6.9500214E-1,1.2172639E0,5.3391093E-1,-2.5685132E-1,1.0024458E0,-4.131944E-2,1.7732497E-2,-4.10763E-2,-3.166638E-2,-3.4921292E-2,3.3810966E-2,-2.2321513E-3,4.1135892E-2,-2.8406667E-2,3.998143E-2,-4.213333E-2,-1.8663624E-2,2.168406E-2,5.024797E-2,-3.775844E-4,-1.9153805E-2,4.1961066E-2,-4.1300066E-2,-4.6415154E-2,3.8344655E-2,-1.7566833E-3,3.74575E-2,-1.9393379E-2,2.925857E-2,2.1066567E-2,-2.3627475E-2,-2.8398964E-3,3.522467E-2],"categories":[],"categories_nodes":[],"categories_segments":[],"categories_sizes":[],"default_left":[1,1,0,1,0,0,1,0,0,0,1,1,0,0,0,0,1,0,0,0,0,0,0,0,0,0,0,0,1,0,0,0,0,0,0,0,0,0,0,0,0,0,0,0,0,0,0,0,0,0,0,0,0,0,0,0,0,0,0],"id":24,"left_children":[1,3,5,7,9,11,13,15,17,19,21,23,25,27,29,31,33,-1,35,37,39,41,-1,43,45,47,49,51,53,55,57,-1,-1,-1,-1,-1,-1,-1,-1,-1,-1,-1,-1,-1,-1,-1,-1,-1,-1,-1,-1,-1,-1,-1,-1,-1,-1,-1,-1],"loss_changes":[2.4020654E3,1.3529163E2,3.4971228E2,2.9988647E1,9.095964E1,1.4271707E2,7.629614E1,2.128601E1,3.5942361E0,7.917372E1,1.4696426E1,3.5327816E1,8.1647255E1,5.0462036E1,1.01130684E2,2.4452381E1,2.5354004E0,0E0,9.898902E0,2.9519688E1,2.6103487E1,3.3134918E0,0E0,1.5768986E0,2.3094963E1,4.65175E1,4.8835327E1,3.544507E1,6.661911E1,5.263627E1,3.2234634E1,0E0,0E0,0E0,0E0,0E0,0E0,0E0,0E0,0E0,0E0,0E0,0E0,0E0,0E0,0E0,0E0,0E0,0E0,0E0,0E0,0E0,0E0,0E0,0E0,0E0,0E0,0E0,0E0],"parents":[2147483647,0,0,1,1,2,2,3,3,4,4,5,5,6,6,7,7,8,8,9,9,10,10,11,11,12,12,13,13,14,14,15,15,16,16,18,18,19,19,20,20,21,21,23,23,24,24,25,25,26,26,27,27,28,28,29,29,30,30],"right_children":[2,4,6,8,10,12,14,16,18,20,22,24,26,28,30,32,34,-1,36,38,40,42,-1,44,46,48,50,52,54,56,58,-1,-1,-1,-1,-1,-1,-1,-1,-1,-1,-1,-1,-1,-1,-1,-1,-1,-1,-1,-1,-1,-1,-1,-1,-1,-1,-1,-1],"split_conditions":[2.31E1,2.11E1,2.52E1,3.528E2,2.343E2,6.83593E4,1.766E2,5.31E1,7.89633E3,2.21E1,3.42E2,1.51E1,2.42E1,1.79629E4,2.347E2,1.37E1,2.06E1,4.0448666E-2,8.40685E3,2.14683E4,2.327E2,3.4E-1,2.3705056E-2,2.5598E4,1.96344E4,1.77548E5,1.17789E5,2.73619E2,9.93E1,4E-2,4.65568E3,-4.131944E-2,1.7732497E-2,-4.10763E-2,-3.166638E-2,-3.4921292E-2,3.3810966E-2,-2.2321513E-3,4.1135892E-2,-2.8406667E-2,3.998143E-2,-4.213333E-2,-1.8663624E-2,2.168406E-2,5.024797E-2,-3.775844E-4,-1.9153805E-2,4.1961066E-2,-4.1300066E-2,-4.6415154E-2,3.8344655E-2,-1.7566833E-3,3.74575E-2,-1.9393379E-2,2.925857E-2,2.1066567E-2,-2.3627475E-2,-2.8398964E-3,3.522467E-2],"split_indices":[1,1,1,5,5,0,5,5,0,1,5,5,1,0,5,1,1,0,0,0,5,4,0,0,0,0,0,0,5,4,0,0,0,0,0,0,0,0,0,0,0,0,0,0,0,0,0,0,0,0,0,0,0,0,0,0,0,0,0],"split_type":[0,0,0,0,0,0,0,0,0,0,0,0,0,0,0,0,0,0,0,0,0,0,0,0,0,0,0,0,0,0,0,0,0,0,0,0,0,0,0,0,0,0,0,0,0,0,0,0,0,0,0,0,0,0,0,0,0,0,0],"sum_hessian":[2.818946E3,1.0987485E3,1.7201976E3,9.0600653E2,1.9274196E2,4.394601E2,1.2807375E3,8.9795435E2,8.052147E0,1.1729197E2,7.544999E1,3.0787323E2,1.315869E2,1.0098936E3,2.708439E2,2.34181E1,8.7453625E2,2.4882808E0,5.5638666E0,6.3848537E1,5.344343E1,7.26349E1,2.8150911E0,1.1468276E1,2.9640494E2,1.0471965E2,2.686725E1,8.84231E2,1.256626E2,1.01322876E2,1.6952103E2,1.1209533E1,1.2208568E1,8.286455E2,4.5890778E1,2.5918589E0,2.9720078E0,2.060596E1,4.3242577E1,4.8732647E1,4.7107854E0,6.420698E1,8.427922E0,6.2680244E0,5.2002516E0,8.1106766E1,2.1529817E2,9.906918E1,5.6504707E0,1.8914377E1,7.9528747E0,2.1165543E1,8.630655E2,3.4074203E1,9.158839E1,3.598045E1,6.534243E1,2.300207E1,1.4651897E2],"tree_param":{"num_deleted":"0","num_feature":"6","num_nodes":"59","size_leaf_vector":"1"}},{"base_weights":[7.873658E-3,-8.737344E-1,9.756779E-1,-1.3215585E0,-2.0157394E-1,1.1024015E0,5.260486E-1,-1.3394812E0,5.9027135E-1,-3.79421E-1,1.0160807E0,1.1283102E0,-4.223925E-2,-7.835569E-1,7.710638E-1,-7.7470326E-1,-1.3627303E0,3.966214E-2,9.430176E-2,6.226273E-1,-5.7491314E-1,1.273853E0,-4.1406374E-2,1.2227745E0,5.469686E-1,4.0484022E-2,-5.685987E-2,1.3915017E-1,1.1181613E0,-3.5124693E-2,3.780754E-2,-4.4645615E-2,-3.9648633E-2,-3.236744E-2,2.8005647E-2,-1.6036177E-3,4.7892135E-2,-1.163913E-2,-3.9330598E-2,-2.9067332E-2,4.02691E-2,3.7052706E-2,-4.4437222E-2,-1.4964233E-2,3.332602E-2,1.27275735E-2,-5.765987E-2,-3.7674997E-2,3.4984287E-2],"categories":[],"categories_nodes":[],"categories_segments":[],"categories_sizes":[],"default_left":[1,1,1,1,0,1,0,0,0,1,0,0,0,0,0,0,1,0,0,0,1,0,0,1,0,0,0,0,0,0,0,0,0,0,0,0,0,0,0,0,0,0,0,0,0,0,0,0,0],"id":25,"left_children":[1,3,5,7,9,11,13,15,17,19,21,23,-1,25,27,29,31,-1,33,35,37,39,-1,41,43,-1,-1,45,47,-1,-1,-1,-1,-1,-1,-1,-1,-1,-1,-1,-1,-1,-1,-1,-1,-1,-1,-1,-1],"loss_changes":[2.3740024E3,4.380155E2,7.499365E1,3.072705E1,1.26719086E2,6.882861E1,9.479319E1,1.0313477E1,3.0723352E0,1.002154E2,4.785019E1,5.5554565E1,0E0,1.1344404E2,5.4191513E1,3.0938908E1,2.3154297E0,0E0,7.23663E0,5.51862E1,5.8258987E1,1.1723198E1,0E0,3.1131592E1,8.601352E1,0E0,0E0,5.3109222E1,1.9665894E1,0E0,0E0,0E0,0E0,0E0,0E0,0E0,0E0,0E0,0E0,0E0,0E0,0E0,0E0,0E0,0E0,0E0,0E0,0E0,0E0],"parents":[2147483647,0,0,1,1,2,2,3,3,4,4,5,5,6,6,7,7,8,8,9,9,10,10,11,11,13,13,14,14,15,15,16,16,18,18,19,19,20,20,21,21,23,23,24,24,27,27,28,28],"right_children":[2,4,6,8,10,12,14,16,18,20,22,24,-1,26,28,30,32,-1,34,36,38,40,-1,42,44,-1,-1,46,48,-1,-1,-1,-1,-1,-1,-1,-1,-1,-1,-1,-1,-1,-1,-1,-1,-1,-1,-1,-1],"split_conditions":[2.49E1,2.11E1,1.839E2,3.528E2,9.36946E4,4.83329E3,1.899E1,1.828E1,7.89633E3,1.913E1,1.77548E5,1.79629E4,-4.223925E-2,1.581E1,2.347E2,2.05E1,1.643E2,3.966214E-2,8.40685E3,2.80106E4,2.301E2,2.28E1,-4.1406374E-2,3.71292E3,2.83E1,4.0484022E-2,-5.685987E-2,2.91E1,2.52E1,-3.5124693E-2,3.780754E-2,-4.4645615E-2,-3.9648633E-2,-3.236744E-2,2.8005647E-2,-1.6036177E-3,4.7892135E-2,-1.163913E-2,-3.9330598E-2,-2.9067332E-2,4.02691E-2,3.7052706E-2,-4.4437222E-2,-1.4964233E-2,3.332602E-2,1.27275735E-2,-5.765987E-2,-3.7674997E-2,3.4984287E-2],"split_indices":[1,1,5,5,0,2,2,2,0,2,0,0,0,2,5,1,5,0,0,0,5,1,0,2,1,0,0,1,1,0,0,0,0,0,0,0,0,0,0,0,0,0,0,0,0,0,0,0,0],"split_type":[0,0,0,0,0,0,0,0,0,0,0,0,0,0,0,0,0,0,0,0,0,0,0,0,0,0,0,0,0,0,0,0,0,0,0,0,0,0,0,0,0,0,0,0,0,0,0,0,0],"sum_hessian":[2.7803914E3,1.4550398E3,1.3253514E3,8.726646E2,5.823752E2,1.0328119E3,2.925396E2,8.6485626E2,7.8083863E0,5.0875616E2,7.3619026E1,1.02280634E3,1.0005494E1,4.5759144E1,2.4678046E2,3.555117E1,8.2930505E2,2.481427E0,5.3269596E0,8.2695076E1,4.260611E2,6.68918E1,6.7272267E0,8.7888916E2,1.439172E2,1.5605308E1,3.0153835E1,8.798994E1,1.5879051E2,3.0113909E1,5.4372625E0,1.9598782E2,6.3331726E2,2.1023247E0,3.2246346E0,4.9365993E1,3.332908E1,3.409901E2,8.5070984E1,1.5915039E0,6.530029E1,8.7544507E2,3.44408E0,5.0457275E1,9.345993E1,7.799558E1,9.994355E0,2.6470833E0,1.5614343E2],"tree_param":{"num_deleted":"0","num_feature":"6","num_nodes":"49","size_leaf_vector":"1"}},{"base_weights":[-9.7942315E-3,5.4317284E-1,-5.444325E-1,7.755173E-1,-3.178026E-1,1.8495038E-2,-8.295626E-1,9.443427E-1,3.4260398E-1,-7.6635766E-1,-9.198458E-3,-5.5204195E-1,4.2139673E-1,-1.0925019E0,-3.73575E-1,4.465272E-1,1.1071608E0,-3.9352663E-2,4.3138817E-1,-1.1390826E0,4.6744907E-1,2.0044845E-1,-8.2083493E-1,-7.5434154E-1,1.1204772E0,-5.609184E-1,7.401691E-1,-1.1433618E-1,-1.1935401E0,-4.4170678E-2,-2.3561813E-1,2.9484954E-2,1.4117927E-3,-9.621112E-3,3.4863833E-2,-4.5860793E-2,1.4968806E-2,-4.5159213E-2,-2.5838073E-2,2.7617088E-2,-3.9109066E-2,-2.1094402E-2,1.2638525E-2,-2.5449668E-3,-4.3303683E-2,-2.5985485E-3,-2.9892685E-2,1.3910309E-2,3.6406573E-2,4.6194676E-2,-2.7756091E-2,3.9823342E-2,1.5591305E-2,-3.0696526E-2,3.2332487E-2,-3.648492E-2,2.2086525E-2,7.3471456E-3,-1.768528E-2],"categories":[],"categories_nodes":[],"categories_segments":[],"categories_sizes":[],"default_left":[1,0,0,0,1,0,0,0,0,1,1,0,0,0,0,0,0,0,0,0,0,0,0,0,0,0,0,0,1,0,0,0,0,0,0,0,0,0,0,0,0,0,0,0,0,0,0,0,0,0,0,0,0,0,0,0,0,0,0],"id":26,"left_children":[1,3,5,7,9,11,13,15,17,19,21,23,25,27,29,31,33,-1,35,37,39,41,43,45,47,49,51,53,55,-1,57,-1,-1,-1,-1,-1,-1,-1,-1,-1,-1,-1,-1,-1,-1,-1,-1,-1,-1,-1,-1,-1,-1,-1,-1,-1,-1,-1,-1],"loss_changes":[8.0081287E2,2.6661713E2,2.2106622E2,7.633594E1,3.9262245E1,1.0689563E2,1.0920001E2,6.0622803E1,4.402015E1,5.369921E1,2.8933342E1,6.5972855E1,8.5753136E1,5.7118225E1,5.0566105E1,4.0126015E1,4.491504E1,0E0,3.8050575E1,7.766777E0,2.329477E1,2.726868E1,1.5871895E1,2.7767052E1,7.316055E-1,5.2957344E1,2.6005356E1,6.1064854E1,2.3814758E1,0E0,5.109166E1,0E0,0E0,0E0,0E0,0E0,0E0,0E0,0E0,0E0,0E0,0E0,0E0,0E0,0E0,0E0,0E0,0E0,0E0,0E0,0E0,0E0,0E0,0E0,0E0,0E0,0E0,0E0,0E0],"parents":[2147483647,0,0,1,1,2,2,3,3,4,4,5,5,6,6,7,7,8,8,9,9,10,10,11,11,12,12,13,13,14,14,15,15,16,16,18,18,19,19,20,20,21,21,22,22,23,23,24,24,25,25,26,26,27,27,28,28,30,30],"right_children":[2,4,6,8,10,12,14,16,18,20,22,24,26,28,30,32,34,-1,36,38,40,42,44,46,48,50,52,54,56,-1,58,-1,-1,-1,-1,-1,-1,-1,-1,-1,-1,-1,-1,-1,-1,-1,-1,-1,-1,-1,-1,-1,-1,-1,-1,-1,-1,-1,-1],"split_conditions":[1.613E2,3.391E4,5E-2,1.4E-1,8.23E1,2.2E-1,1.55071E4,7.9E-1,2.73619E2,3E-1,1.1E-1,